{"sizes":[59,59,4],"layers":[{"0":{},"1":{},"2":{},"3":{},"4":{},"5":{},"6":{},"7":{},"8":{},"9":{},"10":{},"11":{},"12":{},"13":{},"14":{},"15":{},"16":{},"17":{},"18":{},"19":{},"20":{},"21":{},"22":{},"23":{},"24":{},"25":{},"26":{},"27":{},"28":{},"29":{},"30":{},"31":{},"32":{},"33":{},"34":{},"35":{},"36":{},"37":{},"38":{},"39":{},"40":{},"41":{},"42":{},"43":{},"44":{},"45":{},"46":{},"47":{},"48":{},"49":{},"50":{},"51":{},"52":{},"53":{},"54":{},"55":{},"56":{},"57":{},"58":{}},{"0":{"bias":0.35344335436820984,"weights":{"0":0.48285651206970215,"1":-0.7682574987411499,"2":-4.081490993499756,"3":-0.9123038053512573,"4":-1.0376499891281128,"5":0.516796886920929,"6":-1.2956689596176147,"7":-0.4857326149940491,"8":-1.630965232849121,"9":-0.17175011336803436,"10":-0.902662992477417,"11":1.3170194625854492,"12":0.4501219093799591,"13":-0.2681716978549957,"14":0.6805956959724426,"15":0.6382103562355042,"16":-0.8755625486373901,"17":-1.4472960233688354,"18":1.22736394405365,"19":0.343355268239975,"20":-0.07975643873214722,"21":-0.7584356069564819,"22":-0.9033750295639038,"23":1.3831593990325928,"24":-0.5537104606628418,"25":-0.11581064015626907,"26":0.14224545657634735,"27":1.3752658367156982,"28":-0.48626241087913513,"29":-0.6417925357818604,"30":0.21928538382053375,"31":1.0982872247695923,"32":-0.8807101249694824,"33":0.40037181973457336,"34":-0.5153301954269409,"35":0.8768376111984253,"36":-1.477585792541504,"37":-0.23723559081554413,"38":1.035007119178772,"39":-0.08298680186271667,"40":0.4855842888355255,"41":-0.8388236165046692,"42":0.19213539361953735,"43":1.266014575958252,"44":-0.7354304194450378,"45":0.02182670496404171,"46":0.4913177788257599,"47":1.242242693901062,"48":-1.1575102806091309,"49":1.0001871585845947,"50":-0.3359352648258209,"51":0.8010215163230896,"52":-1.6394685506820679,"53":0.020935023203492165,"54":-0.510249137878418,"55":0.7933455109596252,"56":0.030385663732886314,"57":-0.3924207389354706,"58":-1.0865572690963745}},"1":{"bias":0.5418074727058411,"weights":{"0":0.21742233633995056,"1":-0.3715861439704895,"2":0.2155991792678833,"3":-0.9872328639030457,"4":-0.6950567960739136,"5":0.3650546669960022,"6":-0.12087032198905945,"7":0.096125528216362,"8":-0.44488516449928284,"9":0.09717227518558502,"10":-0.18546943366527557,"11":0.1256396770477295,"12":-0.10427788645029068,"13":-0.15741649270057678,"14":-0.011833521537482738,"15":-0.309201717376709,"16":-0.1369197964668274,"17":-0.4150303602218628,"18":0.28231966495513916,"19":0.44380053877830505,"20":-0.3374806344509125,"21":-0.28615602850914,"22":-0.08401049673557281,"23":0.07534098625183105,"24":-0.4381603002548218,"25":-0.10007159411907196,"26":0.18861326575279236,"27":0.06248463690280914,"28":-0.15047472715377808,"29":-0.26726654171943665,"30":0.05958915874361992,"31":-0.1457664668560028,"32":-0.042000096291303635,"33":0.0729474425315857,"34":-0.033875323832035065,"35":0.07560565322637558,"36":-0.3170478045940399,"37":0.03983606398105621,"38":0.3821203410625458,"39":-0.3356441855430603,"40":0.08839620649814606,"41":-0.447596937417984,"42":-0.09837733954191208,"43":-0.06510353833436966,"44":-0.028975119814276695,"45":0.000629378657322377,"46":0.1255788952112198,"47":-0.029952868819236755,"48":-0.532715380191803,"49":0.14744256436824799,"50":0.15872953832149506,"51":0.12017892301082611,"52":-0.3081252872943878,"53":0.03895827755331993,"54":-0.2278839498758316,"55":0.19767314195632935,"56":-0.32169151306152344,"57":-0.20113827288150787,"58":-0.22498877346515656}},"2":{"bias":2.4579856395721436,"weights":{"0":0.6410343050956726,"1":0.08492669463157654,"2":-3.0086796283721924,"3":-2.286940813064575,"4":-1.6425083875656128,"5":-1.237255334854126,"6":4.003518581390381,"7":-0.35175561904907227,"8":-1.7218471765518188,"9":-1.5607173442840576,"10":1.2309825420379639,"11":0.8174856305122375,"12":-0.7403231263160706,"13":0.45479902625083923,"14":0.542340874671936,"15":-0.2766859233379364,"16":-2.072730779647827,"17":-0.7869271039962769,"18":0.25148120522499084,"19":1.0703870058059692,"20":-1.5715943574905396,"21":0.20811346173286438,"22":-1.379709005355835,"23":1.1397731304168701,"24":-1.1200770139694214,"25":0.17513062059879303,"26":-0.5335333943367004,"27":1.919433832168579,"28":-2.2949492931365967,"29":0.756645917892456,"30":0.6424131393432617,"31":1.4231305122375488,"32":-0.9576599597930908,"33":1.553665041923523,"34":-1.140950322151184,"35":0.288564532995224,"36":-0.3778158128261566,"37":1.4912900924682617,"38":0.25236910581588745,"39":-0.24204957485198975,"40":-0.6747223734855652,"41":-0.6830857396125793,"42":0.06189858913421631,"43":0.7446954250335693,"44":-0.42406606674194336,"45":-0.12603837251663208,"46":0.5970162153244019,"47":0.280394971370697,"48":-0.9495989084243774,"49":0.97012859582901,"50":-0.3040303885936737,"51":1.170952320098877,"52":-2.0375192165374756,"53":0.3653891682624817,"54":-1.3828662633895874,"55":0.0031187005806714296,"56":-1.2183839082717896,"57":-1.2471377849578857,"58":-0.8897457122802734}},"3":{"bias":1.3178722858428955,"weights":{"0":-0.5994629859924316,"1":-1.9127821922302246,"2":1.5297582149505615,"3":-1.6868315935134888,"4":-1.1915709972381592,"5":0.0350874662399292,"6":-0.5080369710922241,"7":-0.247877836227417,"8":-0.347246915102005,"9":-0.33281180262565613,"10":-0.6171337366104126,"11":0.532905638217926,"12":-0.3768689036369324,"13":0.21827828884124756,"14":0.05336354672908783,"15":-0.3309284448623657,"16":-1.252773404121399,"17":-0.638286828994751,"18":0.3271787762641907,"19":0.5569772720336914,"20":-1.381104588508606,"21":-0.49345818161964417,"22":0.3857533931732178,"23":-0.13915438950061798,"24":-0.9784859418869019,"25":0.04503496363759041,"26":0.6401738524436951,"27":-0.8810494542121887,"28":-1.0980786085128784,"29":0.14386703073978424,"30":0.775646448135376,"31":0.030012041330337524,"32":-0.2738691568374634,"33":0.5995622277259827,"34":0.4267812669277191,"35":0.28484290838241577,"36":0.006933996919542551,"37":-0.2663237750530243,"38":0.47708648443222046,"39":-0.25810718536376953,"40":0.1633521467447281,"41":-0.3168047070503235,"42":0.5084769129753113,"43":-0.475745290517807,"44":-0.2563415765762329,"45":0.31888651847839355,"46":0.609854519367218,"47":-0.6533486843109131,"48":-1.0697484016418457,"49":-0.11150956153869629,"50":0.8929697871208191,"51":0.402457594871521,"52":-0.5840657949447632,"53":-0.6036485433578491,"54":0.28515905141830444,"55":0.17054946720600128,"56":-0.4478898346424103,"57":0.10626379400491714,"58":0.41686007380485535}},"4":{"bias":2.024076461791992,"weights":{"0":0.8590747117996216,"1":0.9001103043556213,"2":2.8359768390655518,"3":-2.0600690841674805,"4":-1.8353785276412964,"5":0.812480092048645,"6":0.9202740788459778,"7":1.0562626123428345,"8":0.18089142441749573,"9":0.178096741437912,"10":-0.18263337016105652,"11":-0.020516186952590942,"12":0.061025988310575485,"13":-0.12094087153673172,"14":-0.05572649464011192,"15":-0.7793347239494324,"16":0.17014241218566895,"17":-0.2405453771352768,"18":0.07092592120170593,"19":0.26487401127815247,"20":-0.06448273360729218,"21":-1.1206079721450806,"22":0.10703590512275696,"23":0.0981423631310463,"24":-0.4628746807575226,"25":-0.2124536633491516,"26":-0.7749794721603394,"27":-0.3146074116230011,"28":-0.4285300076007843,"29":-0.786444365978241,"30":-0.30493372678756714,"31":-0.3782685399055481,"32":-0.144319549202919,"33":0.4598417580127716,"34":-0.49000805616378784,"35":-0.6002987623214722,"36":0.6225998997688293,"37":0.32966679334640503,"38":0.5861388444900513,"39":-0.8807056546211243,"40":-0.029436243698000908,"41":-0.35808342695236206,"42":-0.3892184793949127,"43":-0.5166531205177307,"44":0.21903038024902344,"45":-0.15920783579349518,"46":0.35202929377555847,"47":-0.10871795564889908,"48":-0.5086175799369812,"49":-0.2584253251552582,"50":0.5249327421188354,"51":0.6795224547386169,"52":0.6079425811767578,"53":-0.5423164367675781,"54":-0.7517822980880737,"55":0.382371187210083,"56":-0.6209554672241211,"57":0.21123290061950684,"58":-0.8142362236976624}},"5":{"bias":-1.4803959131240845,"weights":{"0":-1.975131869316101,"1":1.0147004127502441,"2":2.9634273052215576,"3":1.9961977005004883,"4":1.9396947622299194,"5":-1.2265368700027466,"6":1.5584238767623901,"7":-0.40632373094558716,"8":2.3107519149780273,"9":0.6129534840583801,"10":0.932397186756134,"11":-1.463672399520874,"12":0.2767731547355652,"13":0.49187400937080383,"14":-1.0129640102386475,"15":-0.19672255218029022,"16":1.5507951974868774,"17":2.1976871490478516,"18":-1.9399806261062622,"19":-0.5040575861930847,"20":0.20501704514026642,"21":1.828277349472046,"22":0.5263305306434631,"23":-2.1033108234405518,"24":0.8683854937553406,"25":0.6936197876930237,"26":-0.654134213924408,"27":-1.5660580396652222,"28":1.6265703439712524,"29":1.5330263376235962,"30":-0.9964311122894287,"31":-1.4284591674804688,"32":1.0883930921554565,"33":-0.6985859870910645,"34":0.32953011989593506,"35":-0.3306044042110443,"36":1.6931190490722656,"37":0.7014831304550171,"38":-1.395466923713684,"39":-0.09822750836610794,"40":-0.9732884764671326,"41":1.434794545173645,"42":-0.6663628816604614,"43":-0.93215012550354,"44":0.6851063370704651,"45":0.4552259147167206,"46":-1.121846079826355,"47":-0.6477013230323792,"48":1.0865147113800049,"49":-0.39217400550842285,"50":-0.7352855205535889,"51":-1.1773673295974731,"52":1.775389552116394,"53":0.8327735066413879,"54":0.33221757411956787,"55":-0.9836419224739075,"56":0.4615662097930908,"57":0.3579225242137909,"58":0.6722400784492493}},"6":{"bias":1.111196517944336,"weights":{"0":0.6757584810256958,"1":-0.19257289171218872,"2":1.3546171188354492,"3":-1.16767156124115,"4":-1.0822933912277222,"5":2.7923874855041504,"6":0.11329890787601471,"7":0.41087034344673157,"8":-0.10905878990888596,"9":0.9966205358505249,"10":-0.4971676468849182,"11":-0.02165641449391842,"12":0.2273884117603302,"13":-0.5898710489273071,"14":0.14722850918769836,"15":-0.03394104912877083,"16":0.033829402178525925,"17":-0.18718069791793823,"18":0.47399410605430603,"19":0.39720237255096436,"20":0.25276321172714233,"21":-0.5346049070358276,"22":0.4904191792011261,"23":0.021122967824339867,"24":-0.8978936076164246,"25":0.14970806241035461,"26":-0.3646562695503235,"27":-0.2064104676246643,"28":0.49059557914733887,"29":-0.6821897029876709,"30":-0.09843447059392929,"31":-0.632430911064148,"32":0.034976959228515625,"33":-0.1942930966615677,"34":-0.09564943611621857,"35":-0.14442721009254456,"36":-0.008826050907373428,"37":-0.1234821081161499,"38":0.6597911715507507,"39":-0.6699151992797852,"40":-0.23876778781414032,"41":-0.9556511044502258,"42":-0.3650674521923065,"43":-0.0009116383735090494,"44":-0.12001316249370575,"45":-0.1716923862695694,"46":0.06773347407579422,"47":-0.3349573314189911,"48":-0.13014724850654602,"49":-0.502226710319519,"50":0.19724400341510773,"51":-0.0358707495033741,"52":0.5111396312713623,"53":-0.4618454873561859,"54":0.18338018655776978,"55":0.276521772146225,"56":-0.3138527572154999,"57":0.40345868468284607,"58":-0.4697205424308777}},"7":{"bias":-2.174837112426758,"weights":{"0":0.7957786917686462,"1":0.4640563130378723,"2":-4.828193664550781,"3":2.049328088760376,"4":1.4131823778152466,"5":1.5269266366958618,"6":-1.7607741355895996,"7":-1.7146164178848267,"8":-0.8082461953163147,"9":0.9715029001235962,"10":-0.4210428297519684,"11":0.19486232101917267,"12":2.0484607219696045,"13":-0.816649854183197,"14":-0.2059365063905716,"15":1.3704960346221924,"16":0.5144866108894348,"17":-1.5729358196258545,"18":-0.4167814552783966,"19":-0.5397418737411499,"20":1.0344678163528442,"21":0.21958227455615997,"22":-1.161328911781311,"23":0.8435289263725281,"24":0.6580430865287781,"25":0.194501131772995,"26":0.18529349565505981,"27":0.8804271221160889,"28":1.8395576477050781,"29":-0.7840875387191772,"30":0.13811719417572021,"31":0.477693110704422,"32":0.018973395228385925,"33":-1.060041904449463,"34":-0.25510358810424805,"35":1.3266311883926392,"36":-1.226181149482727,"37":-0.3045378029346466,"38":0.3682835102081299,"39":-0.10617218166589737,"40":0.28036707639694214,"41":-0.8311713933944702,"42":0.1329980045557022,"43":1.1179187297821045,"44":-0.18925213813781738,"45":-0.6654521822929382,"46":-1.0656079053878784,"47":1.3017518520355225,"48":0.5516058206558228,"49":-0.3382166624069214,"50":-0.925224244594574,"51":-0.0017667385982349515,"52":0.4134534001350403,"53":-0.3345709443092346,"54":0.8334617018699646,"55":0.7563997507095337,"56":1.699411392211914,"57":-0.8288630843162537,"58":-0.970093846321106}},"8":{"bias":2.1014983654022217,"weights":{"0":-0.30120033025741577,"1":-1.67433500289917,"2":2.174984931945801,"3":-3.3611950874328613,"4":-2.1156463623046875,"5":-0.551679253578186,"6":-1.3035475015640259,"7":1.1853346824645996,"8":-0.6345869898796082,"9":-0.7658792734146118,"10":-1.1726891994476318,"11":0.4768005907535553,"12":-0.26343581080436707,"13":0.2004571110010147,"14":0.7094933986663818,"15":-1.12595796585083,"16":-1.6504408121109009,"17":-1.3254081010818481,"18":1.2897474765777588,"19":0.6500552892684937,"20":-1.7437609434127808,"21":-1.6465702056884766,"22":0.8168054819107056,"23":1.0114898681640625,"24":-1.3172481060028076,"25":-0.47755733132362366,"26":0.8286689519882202,"27":-0.5977945923805237,"28":-1.7237004041671753,"29":-0.43255361914634705,"30":0.9935873746871948,"31":0.4634670913219452,"32":-0.5476254820823669,"33":1.149957537651062,"34":0.3131457567214966,"35":0.2000393122434616,"36":-0.3599183261394501,"37":-1.1108378171920776,"38":1.3410530090332031,"39":-0.4446347653865814,"40":0.26800358295440674,"41":-0.7959075570106506,"42":0.4642312526702881,"43":-0.4836616516113281,"44":0.3064092993736267,"45":0.23248261213302612,"46":1.8388216495513916,"47":-1.512169599533081,"48":-1.637107491493225,"49":0.1977895200252533,"50":1.619947910308838,"51":1.3681775331497192,"52":-1.1372873783111572,"53":-1.0712591409683228,"54":0.14532117545604706,"55":0.888867199420929,"56":-0.9786547422409058,"57":0.09724673628807068,"58":0.24249234795570374}},"9":{"bias":0.48982590436935425,"weights":{"0":-0.5388256907463074,"1":0.22314319014549255,"2":-2.271928071975708,"3":0.303764283657074,"4":0.6496298313140869,"5":-1.7501784563064575,"6":3.3476948738098145,"7":-0.33520203828811646,"8":-0.8570982217788696,"9":0.25657030940055847,"10":1.7542545795440674,"11":1.0529367923736572,"12":-0.18772722780704498,"13":0.6604515910148621,"14":-0.1374840885400772,"15":0.48872652649879456,"16":0.33559563755989075,"17":-0.5093937516212463,"18":-0.18576692044734955,"19":0.13529473543167114,"20":0.27757012844085693,"21":-0.035288456827402115,"22":-1.1901023387908936,"23":0.47675809264183044,"24":0.2268836796283722,"25":0.07073402404785156,"26":0.4768143594264984,"27":0.6779956221580505,"28":-0.36750373244285583,"29":0.38754287362098694,"30":1.034332513809204,"31":0.4126127362251282,"32":-0.5147103667259216,"33":0.409298300743103,"34":-0.20997022092342377,"35":0.114699587225914,"36":0.0944642722606659,"37":1.271010398864746,"38":-0.34441840648651123,"39":0.4913874864578247,"40":-0.13526883721351624,"41":-0.17394673824310303,"42":-0.19679512083530426,"43":0.4263293445110321,"44":-0.25314319133758545,"45":-0.8141415119171143,"46":-0.06037972867488861,"47":-0.20263348519802094,"48":-0.06118054687976837,"49":-0.01288728415966034,"50":-0.42207765579223633,"51":0.13146021962165833,"52":-0.3728291392326355,"53":0.2982286214828491,"54":-1.262871503829956,"55":-1.0873088836669922,"56":-0.28726160526275635,"57":-1.5865848064422607,"58":-0.5509211421012878}},"10":{"bias":0.4747876822948456,"weights":{"0":0.43617597222328186,"1":-0.5643378496170044,"2":1.4823496341705322,"3":-1.2210934162139893,"4":-0.5727594494819641,"5":-1.5364264249801636,"6":-0.6169318556785583,"7":-0.04592609778046608,"8":0.1850959062576294,"9":-1.0796517133712769,"10":-0.2158021330833435,"11":0.16900859773159027,"12":-0.6162666082382202,"13":0.28416407108306885,"14":-0.10690990090370178,"15":-0.5546838045120239,"16":-0.6930533647537231,"17":0.14414866268634796,"18":0.1519280970096588,"19":-0.11359167844057083,"20":-0.9824669361114502,"21":-0.7405836582183838,"22":0.43606340885162354,"23":0.11563342809677124,"24":-0.4382546842098236,"25":-0.47053271532058716,"26":0.3592325448989868,"27":-0.509460985660553,"28":-1.2369147539138794,"29":0.29800382256507874,"30":0.15208899974822998,"31":0.46237534284591675,"32":-0.20558245480060577,"33":0.5730184316635132,"34":0.3914277255535126,"35":-0.04002504050731659,"36":-0.22601130604743958,"37":-0.49313220381736755,"38":-0.029215579852461815,"39":-0.060477517545223236,"40":-0.026000354439020157,"41":0.34659725427627563,"42":0.45135918259620667,"43":-0.8410421013832092,"44":0.11150196194648743,"45":0.3644742965698242,"46":0.8003572821617126,"47":-0.22816120088100433,"48":-0.3394753336906433,"49":0.35498476028442383,"50":0.38507238030433655,"51":0.5017721056938171,"52":-0.9551277756690979,"53":-0.04692615568637848,"54":-0.259055495262146,"55":0.1033940538764,"56":-0.5903353095054626,"57":0.13054116070270538,"58":0.27452799677848816}},"11":{"bias":-0.6841615438461304,"weights":{"0":-0.01668536476790905,"1":-0.04105644300580025,"2":-0.6384822726249695,"3":0.7259730100631714,"4":0.7367148399353027,"5":0.041818734258413315,"6":0.24006575345993042,"7":-0.05671585351228714,"8":0.15482717752456665,"9":-0.036789365112781525,"10":0.2326049506664276,"11":-0.08323438465595245,"12":0.11365514248609543,"13":-0.04143749922513962,"14":0.06778626888990402,"15":0.19143129885196686,"16":0.19614167511463165,"17":-0.16015319526195526,"18":-0.09575764089822769,"19":-0.13213181495666504,"20":0.3778170049190521,"21":0.30768802762031555,"22":-0.27280551195144653,"23":-0.013504893518984318,"24":0.2548900544643402,"25":0.03966456651687622,"26":-0.26422441005706787,"27":0.21697978675365448,"28":0.2937817871570587,"29":0.14449742436408997,"30":-0.11827405542135239,"31":-0.09149594604969025,"32":0.23915331065654755,"33":-0.24050413072109222,"34":-0.10128959268331528,"35":0.025278659537434578,"36":-0.03975484520196915,"37":0.14905917644500732,"38":-0.3271894156932831,"39":0.22540023922920227,"40":0.12772983312606812,"41":-0.14529255032539368,"42":-0.13252675533294678,"43":-0.04586369916796684,"44":0.04405233636498451,"45":-0.3723445534706116,"46":-0.09850051999092102,"47":0.015330006368458271,"48":0.131479874253273,"49":-0.21224507689476013,"50":-0.17897440493106842,"51":-0.3867008090019226,"52":0.11153415590524673,"53":0.20851780474185944,"54":0.14997464418411255,"55":-0.2313196063041687,"56":0.08603006601333618,"57":-0.37178629636764526,"58":-0.014748954214155674}},"12":{"bias":2.0558719635009766,"weights":{"0":1.2610565423965454,"1":-1.8977543115615845,"2":3.1283133029937744,"3":-2.3527050018310547,"4":-1.5666559934616089,"5":-1.0248826742172241,"6":-0.22504110634326935,"7":-0.3971305787563324,"8":0.09977776557207108,"9":-1.0509394407272339,"10":-0.24036946892738342,"11":0.5569539666175842,"12":-1.5336925983428955,"13":1.0417919158935547,"14":0.010431908071041107,"15":-0.4365694522857666,"16":-1.4545977115631104,"17":0.4241652488708496,"18":0.4769718050956726,"19":0.5137237310409546,"20":-2.6728265285491943,"21":-0.3840879201889038,"22":0.49434801936149597,"23":-0.5215795636177063,"24":-1.4781395196914673,"25":-0.12186156958341599,"26":0.2978457510471344,"27":-1.287882685661316,"28":-2.0289013385772705,"29":0.9770309329032898,"30":0.14079998433589935,"31":0.19059030711650848,"32":-0.7316742539405823,"33":0.8957931399345398,"34":0.6694812774658203,"35":-0.08514910936355591,"36":-0.3349282145500183,"37":0.019625093787908554,"38":0.4179854989051819,"39":-0.3424510359764099,"40":-0.7239104509353638,"41":0.4483274817466736,"42":0.48523080348968506,"43":-1.0833265781402588,"44":-0.31959405541419983,"45":1.149654507637024,"46":1.2376224994659424,"47":-1.005764126777649,"48":-1.0131034851074219,"49":0.4179839789867401,"50":0.8111954927444458,"51":0.5584798455238342,"52":-1.1884677410125732,"53":0.3922014832496643,"54":-0.1632664054632187,"55":-0.28394028544425964,"56":-0.9699401259422302,"57":0.8211590647697449,"58":0.5912277698516846}},"13":{"bias":1.3386212587356567,"weights":{"0":0.6930367946624756,"1":-0.01955254189670086,"2":1.9561498165130615,"3":-1.3528950214385986,"4":-1.1097615957260132,"5":0.7043812870979309,"6":0.7897799015045166,"7":0.5172293186187744,"8":0.07444534450769424,"9":0.36167338490486145,"10":-0.005708681419491768,"11":-0.021804502233862877,"12":0.08073248714208603,"13":-0.007263125851750374,"14":-0.1151190996170044,"15":-0.38546115159988403,"16":0.13362160325050354,"17":-0.31468623876571655,"18":0.24410751461982727,"19":0.38826489448547363,"20":-0.20142126083374023,"21":-0.6102548837661743,"22":0.011925599537789822,"23":-0.15943393111228943,"24":-0.6668744683265686,"25":-0.3546418249607086,"26":-0.1916607767343521,"27":-0.3228629231452942,"28":-0.42359697818756104,"29":-0.20376130938529968,"30":0.1264948695898056,"31":-0.13009092211723328,"32":0.2140227109193802,"33":0.41765880584716797,"34":-0.08324026316404343,"35":-0.49102216958999634,"36":0.21015167236328125,"37":0.0384785532951355,"38":0.2821321189403534,"39":-0.6324469447135925,"40":-0.16248919069766998,"41":-0.36696627736091614,"42":-0.26280534267425537,"43":-0.30056604743003845,"44":0.3711923062801361,"45":0.04799223318696022,"46":0.2429000735282898,"47":-0.6095907688140869,"48":-0.5468925833702087,"49":-0.3850596845149994,"50":0.3939569294452667,"51":0.25364261865615845,"52":0.3645561933517456,"53":-0.3464042842388153,"54":-0.24917538464069366,"55":0.11488796770572662,"56":-0.3731425106525421,"57":0.10614681988954544,"58":-0.5598427057266235}},"14":{"bias":1.195627212524414,"weights":{"0":-0.01166084036231041,"1":0.48538804054260254,"2":0.7408956289291382,"3":-0.6121813058853149,"4":-0.5263218283653259,"5":0.17459185421466827,"6":1.0561004877090454,"7":0.3074740171432495,"8":-0.21763528883457184,"9":0.15911388397216797,"10":0.5572680830955505,"11":0.37947171926498413,"12":0.07367724925279617,"13":0.26391279697418213,"14":-0.17616170644760132,"15":-0.036467231810092926,"16":0.007441141176968813,"17":-0.1580287218093872,"18":-0.2073063999414444,"19":0.04918428510427475,"20":-0.2794204652309418,"21":-0.4507482647895813,"22":0.02784827910363674,"23":-0.18239010870456696,"24":-0.1547262966632843,"25":-0.0969797670841217,"26":-0.09030409902334213,"27":-0.3493979573249817,"28":-0.330778032541275,"29":-0.02693251334130764,"30":-0.03674716874957085,"31":-0.20682023465633392,"32":-0.221876859664917,"33":0.23990675806999207,"34":-0.14231149852275848,"35":-0.18133677542209625,"36":0.19318513572216034,"37":0.42937177419662476,"38":0.04217672348022461,"39":-0.29896143078804016,"40":-0.12831787765026093,"41":-0.42444321513175964,"42":-0.08552707731723785,"43":-0.2671775221824646,"44":0.13760463893413544,"45":-0.15034691989421844,"46":0.11965306848287582,"47":-0.05806410312652588,"48":-0.533027708530426,"49":-0.3425449728965759,"50":-0.16403548419475555,"51":-0.022573629394173622,"52":0.1562512367963791,"53":-0.26015204191207886,"54":-0.6402799487113953,"55":0.0035291193053126335,"56":-0.10936791449785233,"57":-0.29830852150917053,"58":-0.3556447923183441}},"15":{"bias":-0.755195677280426,"weights":{"0":0.23356617987155914,"1":-0.9266735911369324,"2":-0.05119507387280464,"3":-0.34369704127311707,"4":-0.6564903259277344,"5":-0.4906867742538452,"6":-4.02231502532959,"7":0.016637666150927544,"8":0.5915431380271912,"9":-1.2455322742462158,"10":-1.8960776329040527,"11":-0.6249350905418396,"12":0.29839667677879333,"13":-0.3910031020641327,"14":0.5022170543670654,"15":-0.7072390913963318,"16":-1.09468674659729,"17":0.10517463088035583,"18":0.7344933152198792,"19":-0.6202108263969421,"20":-0.014478103257715702,"21":-0.2633582055568695,"22":0.4826374351978302,"23":0.51692134141922,"24":-0.3807447552680969,"25":-0.19294856488704681,"26":0.1872609555721283,"27":0.1574435830116272,"28":-0.21060259640216827,"29":-0.5830785632133484,"30":-0.5020384192466736,"31":-0.08885034918785095,"32":-0.2831597924232483,"33":0.15810692310333252,"34":0.2124757170677185,"35":0.22000862658023834,"36":-0.8853921294212341,"37":-1.1514815092086792,"38":0.9507095813751221,"39":-0.43892571330070496,"40":0.6219605207443237,"41":0.6070623397827148,"42":0.5925509929656982,"43":-0.13521932065486908,"44":0.3341016173362732,"45":0.6521092057228088,"46":0.772715151309967,"47":0.598514974117279,"48":-0.36235737800598145,"49":0.42251041531562805,"50":0.8685519695281982,"51":0.4605126976966858,"52":-1.2370269298553467,"53":-0.20220576226711273,"54":1.4092981815338135,"55":1.0358067750930786,"56":0.4480321705341339,"57":1.1288080215454102,"58":0.5466147065162659}},"16":{"bias":1.735050916671753,"weights":{"0":1.1596627235412598,"1":-0.3905118703842163,"2":1.0922211408615112,"3":-1.793120265007019,"4":-2.161240577697754,"5":3.2978768348693848,"6":0.5182823538780212,"7":0.8974323272705078,"8":-0.7921496033668518,"9":1.2258352041244507,"10":-0.6480279564857483,"11":-0.08424054086208344,"12":0.531862199306488,"13":-0.8918842077255249,"14":0.23329055309295654,"15":-0.1853582262992859,"16":0.06839943677186966,"17":-0.9207631349563599,"18":0.5558381080627441,"19":0.45432060956954956,"20":0.3579268455505371,"21":-1.0453810691833496,"22":0.40868791937828064,"23":0.12693297863006592,"24":-0.8274294137954712,"25":0.2605080306529999,"26":-0.5213671922683716,"27":-0.02540847845375538,"28":0.40119755268096924,"29":-0.9818602800369263,"30":0.3709823489189148,"31":-0.5117204189300537,"32":-0.1798330694437027,"33":0.1114773228764534,"34":-0.4433370530605316,"35":-0.1281190812587738,"36":0.27683359384536743,"37":0.176970973610878,"38":1.2979347705841064,"39":-0.9908467531204224,"40":0.19510340690612793,"41":-1.1850486993789673,"42":-0.9523282051086426,"43":-0.03253479674458504,"44":0.363172322511673,"45":-0.09996894747018814,"46":-0.04935668036341667,"47":-0.37951305508613586,"48":-0.7044078707695007,"49":-0.6861497759819031,"50":0.3260665535926819,"51":0.5043624639511108,"52":0.8274418115615845,"53":-0.3798823952674866,"54":-0.04371020942926407,"55":0.45088624954223633,"56":-0.46975886821746826,"57":0.34204185009002686,"58":-1.0432536602020264}},"17":{"bias":0.8732020854949951,"weights":{"0":-1.086887001991272,"1":-0.05444279685616493,"2":-3.1084680557250977,"3":-0.2524675130844116,"4":0.022576946765184402,"5":-1.5429903268814087,"6":3.5625827312469482,"7":-0.14171741902828217,"8":-1.325156807899475,"9":-0.17032340168952942,"10":1.7336368560791016,"11":1.5337990522384644,"12":0.415637731552124,"13":0.652366578578949,"14":-0.12673836946487427,"15":0.3772381544113159,"16":-0.05968562886118889,"17":-0.9433455467224121,"18":-0.0668034479022026,"19":0.31032201647758484,"20":0.4006001651287079,"21":-0.11562331765890121,"22":-1.7187472581863403,"23":0.7918775677680969,"24":-0.1035362258553505,"25":0.17651952803134918,"26":0.19613373279571533,"27":1.2627322673797607,"28":-0.6179487109184265,"29":0.3966182768344879,"30":0.809123694896698,"31":0.5225182175636292,"32":-0.807296633720398,"33":1.081005334854126,"34":-0.5757066011428833,"35":-0.029683824628591537,"36":-0.02452150173485279,"37":1.3836255073547363,"38":-0.36238518357276917,"39":0.25741395354270935,"40":-0.04076726734638214,"41":-0.7686474919319153,"42":-0.2576816976070404,"43":0.8316946029663086,"44":-0.1317344307899475,"45":-0.5596975684165955,"46":0.4068331718444824,"47":-0.21044513583183289,"48":-0.17516715824604034,"49":0.5160853862762451,"50":-0.6008936762809753,"51":0.42240989208221436,"52":-0.43939462304115295,"53":0.4017333388328552,"54":-1.8061637878417969,"55":-0.9667741060256958,"56":-0.7019712924957275,"57":-1.6246081590652466,"58":-0.8932318091392517}},"18":{"bias":0.541278600692749,"weights":{"0":-0.3039902448654175,"1":0.6119712591171265,"2":0.7266090512275696,"3":-0.34353184700012207,"4":-0.23640474677085876,"5":0.04890718311071396,"6":0.7488217353820801,"7":-0.05549304932355881,"8":0.0951354056596756,"9":0.07188049703836441,"10":0.4758387506008148,"11":0.14493991434574127,"12":-0.2155398577451706,"13":0.24561640620231628,"14":0.012843435630202293,"15":0.05531517043709755,"16":0.07576067000627518,"17":0.2745407521724701,"18":-0.3296527564525604,"19":0.23575110733509064,"20":-0.5412979125976562,"21":0.024158695712685585,"22":-0.24635641276836395,"23":-0.06676184386014938,"24":-0.22136162221431732,"25":-0.02775755524635315,"26":-0.19425366818904877,"27":-0.4309972822666168,"28":-0.3310302197933197,"29":0.2763924300670624,"30":0.051603276282548904,"31":-0.1372516006231308,"32":-0.0487263947725296,"33":0.3088158071041107,"34":-0.1994955986738205,"35":-0.19805198907852173,"36":-0.09837771207094193,"37":0.28817424178123474,"38":-0.12511499226093292,"39":-0.2071291208267212,"40":-0.3872843384742737,"41":-0.17845971882343292,"42":-0.2579263746738434,"43":-0.28106507658958435,"44":-0.13655562698841095,"45":-0.01938932202756405,"46":0.1150578185915947,"47":-0.11895713955163956,"48":-0.4312382936477661,"49":-0.0810476765036583,"50":0.06830888241529465,"51":0.05528714507818222,"52":-0.14632543921470642,"53":0.14072032272815704,"54":-0.34765416383743286,"55":-0.1734490841627121,"56":-0.49995172023773193,"57":-0.1413707584142685,"58":-0.23119217157363892}},"19":{"bias":1.1978909969329834,"weights":{"0":-0.15237917006015778,"1":0.4794849455356598,"2":2.1445717811584473,"3":-0.8572244048118591,"4":-0.6624009013175964,"5":0.2924218773841858,"6":0.33797940611839294,"7":0.4872572124004364,"8":0.07287926971912384,"9":0.16385869681835175,"10":-0.24449893832206726,"11":-0.26571086049079895,"12":-0.3634023368358612,"13":0.07265625149011612,"14":0.3124466836452484,"15":-0.47035321593284607,"16":-0.1754208505153656,"17":0.32849791646003723,"18":0.28976741433143616,"19":0.05925450846552849,"20":-0.6090160012245178,"21":-0.15926499664783478,"22":0.2942708730697632,"23":-0.41151878237724304,"24":-0.6658849716186523,"25":-0.3130893111228943,"26":-0.25306108593940735,"27":-0.7001957297325134,"28":-0.578829288482666,"29":-0.05364524573087692,"30":-0.04821949079632759,"31":-0.23019103705883026,"32":-0.2647727131843567,"33":-0.11140111088752747,"34":-0.0838584378361702,"35":-0.28887903690338135,"36":0.12604081630706787,"37":0.0013731671497225761,"38":0.01434201467782259,"39":0.03376249223947525,"40":-0.4977392852306366,"41":0.025959579274058342,"42":-0.13661596179008484,"43":-0.43017274141311646,"44":-0.11619138717651367,"45":-0.13178449869155884,"46":0.6240143179893494,"47":-0.03325594216585159,"48":-0.40391862392425537,"49":-0.14340975880622864,"50":0.5411489009857178,"51":0.14303997159004211,"52":0.3437884747982025,"53":-0.1648959219455719,"54":-0.23839499056339264,"55":-0.051251962780952454,"56":-0.4175789952278137,"57":0.21502867341041565,"58":-0.21486268937587738}},"20":{"bias":1.2125824689865112,"weights":{"0":-0.7821936011314392,"1":0.06309105455875397,"2":1.2016969919204712,"3":-1.0334872007369995,"4":-0.6900234222412109,"5":-0.061458833515644073,"6":0.5570577383041382,"7":0.02203591912984848,"8":-0.22280821204185486,"9":-0.3126279413700104,"10":0.0346573144197464,"11":0.09265828877687454,"12":-0.5258776545524597,"13":0.09547807276248932,"14":0.1589181274175644,"15":-0.30880582332611084,"16":-0.6344805955886841,"17":-0.13343481719493866,"18":0.124469093978405,"19":0.4900774359703064,"20":-0.7431270480155945,"21":-0.1328103393316269,"22":0.2766807973384857,"23":-0.21877065300941467,"24":-0.6819448471069336,"25":-0.16664676368236542,"26":-0.16795966029167175,"27":-0.6476966738700867,"28":-0.6912356615066528,"29":-0.13670431077480316,"30":0.031141623854637146,"31":-0.0023004552349448204,"32":-0.3304733633995056,"33":0.4978969395160675,"34":-0.26149773597717285,"35":0.0192430280148983,"36":0.12132275849580765,"37":0.07646897435188293,"38":0.23974958062171936,"39":-0.17162172496318817,"40":-0.22214925289154053,"41":-0.12427150458097458,"42":0.2946537733078003,"43":-0.435061514377594,"44":-0.298069566488266,"45":0.11817741394042969,"46":0.6077746748924255,"47":-0.03556445986032486,"48":-0.5014389753341675,"49":0.21532697975635529,"50":0.2228708565235138,"51":0.4532920718193054,"52":-0.2668358385562897,"53":-0.29007235169410706,"54":-0.15396195650100708,"55":0.003906982950866222,"56":-0.4296247065067291,"57":-0.10198688507080078,"58":-0.19946230947971344}},"21":{"bias":-2.409493923187256,"weights":{"0":-2.1172852516174316,"1":0.37265583872795105,"2":0.017746491357684135,"3":3.225405216217041,"4":3.458173990249634,"5":-3.1032540798187256,"6":-0.40223193168640137,"7":-1.2839882373809814,"8":1.5179376602172852,"9":-1.3088998794555664,"10":0.55518639087677,"11":0.31577807664871216,"12":-0.16152407228946686,"13":0.7977292537689209,"14":-0.26872724294662476,"15":0.38315096497535706,"16":0.38629457354545593,"17":1.2540558576583862,"18":-1.3425005674362183,"19":-0.8928773999214172,"20":0.1683867871761322,"21":1.2865610122680664,"22":0.1010536402463913,"23":-0.48958516120910645,"24":1.2850680351257324,"25":-0.22694382071495056,"26":0.5741404891014099,"27":-0.4047797918319702,"28":0.2515449523925781,"29":0.9874870777130127,"30":-0.14383110404014587,"31":0.01890130527317524,"32":0.4074375331401825,"33":-0.48956722021102905,"34":0.29642316699028015,"35":0.4558369517326355,"36":0.27403515577316284,"37":-0.3217537999153137,"38":-1.1989085674285889,"39":1.492974042892456,"40":-0.5863143801689148,"41":1.251668930053711,"42":0.9453955888748169,"43":-0.07711465656757355,"44":-0.11486378312110901,"45":-0.25065186619758606,"46":-0.3717268109321594,"47":0.15697330236434937,"48":0.8888961672782898,"49":0.32966509461402893,"50":-0.44090530276298523,"51":-0.9701126217842102,"52":0.24018678069114685,"53":0.16006654500961304,"54":0.3923838436603546,"55":-0.8128097653388977,"56":0.5493370890617371,"57":-0.5544018745422363,"58":1.2384376525878906}},"22":{"bias":-2.0134572982788086,"weights":{"0":-0.4783713221549988,"1":0.12222351133823395,"2":-5.547006130218506,"3":2.0017237663269043,"4":1.8079479932785034,"5":-0.11201556771993637,"6":-0.33924511075019836,"7":-1.3390698432922363,"8":-0.9548816084861755,"9":0.44480520486831665,"10":0.09317523241043091,"11":0.9329655766487122,"12":0.7588354349136353,"13":0.12819328904151917,"14":-0.09423162788152695,"15":0.9549712538719177,"16":-0.10896213352680206,"17":-0.6639787554740906,"18":-0.352067232131958,"19":-0.5372358560562134,"20":1.228124976158142,"21":0.5727619528770447,"22":-1.2689727544784546,"23":0.9475222826004028,"24":0.9320618510246277,"25":0.2961176037788391,"26":0.34164726734161377,"27":1.4554710388183594,"28":1.019661784172058,"29":-0.17026177048683167,"30":0.1250619888305664,"31":0.8207422494888306,"32":-0.34525686502456665,"33":-0.1568049192428589,"34":-0.2547220289707184,"35":0.5748417377471924,"36":-1.1557538509368896,"37":0.36056089401245117,"38":-0.05781390890479088,"39":0.6507316827774048,"40":0.23950068652629852,"41":-0.1089564636349678,"42":0.11271820217370987,"43":1.82212233543396,"44":-0.5716292858123779,"45":-0.4712861180305481,"46":-0.7129912972450256,"47":0.7281243801116943,"48":0.4597882926464081,"49":0.15910419821739197,"50":-1.0515090227127075,"51":-0.3393155038356781,"52":-0.3034939169883728,"53":0.4690782427787781,"54":0.28196948766708374,"55":-0.306851327419281,"56":0.6409456729888916,"57":-1.0599459409713745,"58":-0.1849154233932495}},"23":{"bias":-2.3374671936035156,"weights":{"0":-0.8249646425247192,"1":-1.2401163578033447,"2":-1.2606626749038696,"3":2.140939474105835,"4":2.033343553543091,"5":-2.197073459625244,"6":-2.402564764022827,"7":-0.4146955907344818,"8":0.6459695100784302,"9":-0.7019478678703308,"10":-0.5309133529663086,"11":-0.046865493059158325,"12":-0.2933354377746582,"13":-0.02055954374372959,"14":0.21764332056045532,"15":0.10454772412776947,"16":-0.07799329608678818,"17":0.3498551845550537,"18":-0.18904463946819305,"19":-0.7630681395530701,"20":-0.14685113728046417,"21":0.2643777132034302,"22":0.11382152140140533,"23":0.18941600620746613,"24":1.1740541458129883,"25":-0.23479431867599487,"26":0.9344451427459717,"27":0.06329909712076187,"28":0.4375269114971161,"29":0.40319281816482544,"30":0.01867430843412876,"31":0.2106957882642746,"32":0.3557654023170471,"33":-0.5830342173576355,"34":0.48427915573120117,"35":0.15765166282653809,"36":-0.5039218664169312,"37":-0.9252825379371643,"38":-0.17437493801116943,"39":0.657429575920105,"40":0.47385793924331665,"41":0.6340206861495972,"42":0.9060553312301636,"43":0.08506905287504196,"44":0.001786521403118968,"45":-0.18187707662582397,"46":-0.44875675439834595,"47":0.2540464699268341,"48":0.988533079624176,"49":0.12234228104352951,"50":0.25108039379119873,"51":-0.6044394969940186,"52":-0.30184808373451233,"53":0.22163979709148407,"54":1.0021998882293701,"55":-0.13448108732700348,"56":0.7123254537582397,"57":-0.022364012897014618,"58":1.15184485912323}},"24":{"bias":-1.257328748703003,"weights":{"0":0.7859795689582825,"1":-0.20622876286506653,"2":-6.171189308166504,"3":1.0006591081619263,"4":0.7624801993370056,"5":0.4790343642234802,"6":-1.6405822038650513,"7":-1.8464049100875854,"8":-1.6568561792373657,"9":-0.1779859960079193,"10":-0.2591002881526947,"11":1.5198614597320557,"12":1.0548999309539795,"13":-0.5720459818840027,"14":0.11620976030826569,"15":1.3369576930999756,"16":-0.5323328375816345,"17":-1.9499516487121582,"18":0.5887916088104248,"19":0.08727875351905823,"20":1.149216651916504,"21":-0.5378780364990234,"22":-1.2369979619979858,"23":1.8003042936325073,"24":0.2595951557159424,"25":-0.12301216274499893,"26":1.0983201265335083,"27":2.0886316299438477,"28":0.5158726572990417,"29":-1.0675458908081055,"30":0.7193911671638489,"31":1.3994317054748535,"32":-0.8285679817199707,"33":0.09476988762617111,"34":-0.20227400958538055,"35":1.2745622396469116,"36":-1.6375808715820312,"37":-0.3406218886375427,"38":0.6777803897857666,"39":0.4438815414905548,"40":0.610550045967102,"41":-0.9392833113670349,"42":0.3109385371208191,"43":1.9726279973983765,"44":-0.40411925315856934,"45":-0.8635140061378479,"46":-0.0011119245318695903,"47":1.3717553615570068,"48":0.14024865627288818,"49":0.08940340578556061,"50":-0.673174262046814,"51":0.23377014696598053,"52":-1.1589996814727783,"53":0.012762208469212055,"54":-0.3478747606277466,"55":0.6435258388519287,"56":0.802603542804718,"57":-1.414969801902771,"58":-0.6598129868507385}},"25":{"bias":2.1663239002227783,"weights":{"0":-1.4326071739196777,"1":-1.8264533281326294,"2":-1.2599278688430786,"3":-3.136105537414551,"4":-1.804013967514038,"5":-0.22348618507385254,"6":-0.33088234066963196,"7":1.8075915575027466,"8":-2.2194836139678955,"9":-2.2247424125671387,"10":-1.3788609504699707,"11":1.7577364444732666,"12":-0.852925717830658,"13":0.17925016582012177,"14":1.2184540033340454,"15":-1.0051013231277466,"16":-2.7849960327148438,"17":-2.50687313079834,"18":1.3850054740905762,"19":0.6981056332588196,"20":-2.039825916290283,"21":-1.7248992919921875,"22":-0.836448073387146,"23":2.744734525680542,"24":-1.48029625415802,"25":-0.10771015286445618,"26":1.6523455381393433,"27":0.6878933310508728,"28":-2.0548770427703857,"29":-0.5183643698692322,"30":2.2254536151885986,"31":2.1858959197998047,"32":-0.6901901364326477,"33":1.420593023300171,"34":-0.25649064779281616,"35":1.393474817276001,"36":-1.2777310609817505,"37":-0.2784099578857422,"38":1.159256935119629,"39":0.49499058723449707,"40":0.5487101674079895,"41":-1.618192195892334,"42":0.5404962301254272,"43":1.2526578903198242,"44":-1.0017999410629272,"45":-0.23980508744716644,"46":1.4191933870315552,"47":-0.7822363972663879,"48":-1.7783551216125488,"49":0.910148561000824,"50":1.1550573110580444,"51":1.9977145195007324,"52":-2.3357994556427,"53":-1.3413180112838745,"54":-0.6876274943351746,"55":1.6312915086746216,"56":-2.2658820152282715,"57":-0.788680374622345,"58":0.3330706059932709}},"26":{"bias":1.5897536277770996,"weights":{"0":-1.7767307758331299,"1":-1.5804866552352905,"2":4.378342628479004,"3":-1.931831955909729,"4":-1.275919795036316,"5":0.8797435164451599,"6":-1.5664761066436768,"7":2.1012892723083496,"8":1.2108718156814575,"9":0.07687855511903763,"10":-1.3156031370162964,"11":-0.3283453583717346,"12":-0.33530235290527344,"13":-0.553737223148346,"14":0.5997633337974548,"15":-0.9830776453018188,"16":-0.5819982886314392,"17":0.05443701893091202,"18":0.7694252133369446,"19":0.16701629757881165,"20":-0.8493059873580933,"21":-0.6358340382575989,"22":1.889426827430725,"23":-0.250905841588974,"24":-1.2722094058990479,"25":0.0011577527038753033,"26":0.20495574176311493,"27":-1.2380326986312866,"28":-1.1245414018630981,"29":-0.6589782238006592,"30":0.4496992230415344,"31":-1.2675422430038452,"32":0.25127652287483215,"33":0.2346310019493103,"34":0.8956865668296814,"35":-0.4887336194515228,"36":0.3460192084312439,"37":-1.317728877067566,"38":1.2330498695373535,"39":-0.2054525762796402,"40":0.13528716564178467,"41":-0.5343332886695862,"42":0.49190011620521545,"43":-1.2350605726242065,"44":0.1465703547000885,"45":0.1086440235376358,"46":1.052293062210083,"47":-1.2476706504821777,"48":-0.7982015609741211,"49":-0.4842182397842407,"50":1.6877168416976929,"51":0.12290839850902557,"52":0.19247256219387054,"53":-0.7486950755119324,"54":0.9257985949516296,"55":0.3603169620037079,"56":-0.40601667761802673,"57":0.8340398073196411,"58":0.7041286826133728}},"27":{"bias":0.6229737401008606,"weights":{"0":0.029080357402563095,"1":0.04733617976307869,"2":0.36471056938171387,"3":-0.22971728444099426,"4":-0.23315660655498505,"5":0.587023913860321,"6":0.9903390407562256,"7":-0.014601640403270721,"8":-0.10748949646949768,"9":0.2874789834022522,"10":0.06670957058668137,"11":0.29325631260871887,"12":0.2405720204114914,"13":-0.28069713711738586,"14":-0.09430018812417984,"15":0.30332016944885254,"16":0.22167006134986877,"17":-0.15713630616664886,"18":-0.022929172962903976,"19":0.2704516053199768,"20":-0.12542548775672913,"21":-0.30166947841644287,"22":-0.10440556704998016,"23":-0.18171866238117218,"24":-0.3109006881713867,"25":0.15779049694538116,"26":-0.23497796058654785,"27":-0.2455972284078598,"28":0.13609084486961365,"29":-0.2363913357257843,"30":-0.1396361142396927,"31":-0.21062670648097992,"32":0.08666165173053741,"33":0.13469980657100677,"34":-0.3353373110294342,"35":0.10530869662761688,"36":0.08803288638591766,"37":-0.006589138880372047,"38":0.19995738565921783,"39":-0.22998178005218506,"40":0.045995697379112244,"41":-0.5914678573608398,"42":-0.43671703338623047,"43":-0.10511427372694016,"44":0.13257835805416107,"45":-0.17267239093780518,"46":-0.2473110556602478,"47":0.010692263022065163,"48":-0.21482835710048676,"49":-0.3045582175254822,"50":0.09906055778265,"51":-0.14841215312480927,"52":0.28464317321777344,"53":-0.37510979175567627,"54":-0.06566254794597626,"55":-0.2786329388618469,"56":-0.17525753378868103,"57":-0.05310889333486557,"58":-0.4073793590068817}},"28":{"bias":1.232953667640686,"weights":{"0":0.41227075457572937,"1":-0.2631955146789551,"2":2.0575826168060303,"3":-1.7101136445999146,"4":-1.2771000862121582,"5":-0.053818702697753906,"6":-0.03861958160996437,"7":0.4944019913673401,"8":-0.0705319494009018,"9":-0.31379979848861694,"10":-0.47992807626724243,"11":0.164857879281044,"12":-0.4250989854335785,"13":-0.004026658833026886,"14":-0.07465740293264389,"15":-0.5364006757736206,"16":-0.5938959717750549,"17":0.02417002245783806,"18":0.3731476366519928,"19":0.35943061113357544,"20":-0.7334415912628174,"21":-0.5103464126586914,"22":0.304391473531723,"23":-0.08273960649967194,"24":-0.7909666895866394,"25":-0.15271955728530884,"26":-0.18996261060237885,"27":-0.6798319816589355,"28":-0.8621401190757751,"29":-0.07735992968082428,"30":-0.12045740336179733,"31":-0.205057755112648,"32":-0.1792895644903183,"33":0.6564112305641174,"34":-0.06144764646887779,"35":-0.2960929274559021,"36":0.2979390323162079,"37":0.041585709899663925,"38":0.5227774977684021,"39":-0.42115676403045654,"40":0.016594070941209793,"41":-0.14635078608989716,"42":0.20729273557662964,"43":-0.7638569474220276,"44":0.15894274413585663,"45":0.3161868751049042,"46":0.49411526322364807,"47":-0.4154725670814514,"48":-0.6060472130775452,"49":-0.03425760567188263,"50":0.4353477656841278,"51":0.35818806290626526,"52":-0.26492756605148315,"53":-0.37266770005226135,"54":-0.06536717712879181,"55":0.26364418864250183,"56":-0.4223523736000061,"57":0.19715061783790588,"58":0.05812663957476616}},"29":{"bias":-0.4950123727321625,"weights":{"0":-0.0672798827290535,"1":-0.8853774666786194,"2":-0.4981372356414795,"3":0.7638933062553406,"4":0.34645527601242065,"5":1.222214937210083,"6":-0.9491172432899475,"7":-0.2653365433216095,"8":0.07259611040353775,"9":0.3392062783241272,"10":-0.5301514863967896,"11":-0.054721664637327194,"12":0.3409373164176941,"13":-0.5690358281135559,"14":0.3082435131072998,"15":0.30011826753616333,"16":0.30195847153663635,"17":0.054621372371912,"18":0.494644433259964,"19":0.016650283709168434,"20":0.36822637915611267,"21":0.03985319286584854,"22":0.43177640438079834,"23":-0.23472218215465546,"24":-0.16379208862781525,"25":0.09033238887786865,"26":-0.18680642545223236,"27":-0.05632948875427246,"28":0.3101538121700287,"29":-0.27771785855293274,"30":-0.23880676925182343,"31":-0.5513442754745483,"32":0.14786335825920105,"33":-0.4057915210723877,"34":0.1121615469455719,"35":0.05348467454314232,"36":-0.3335440754890442,"37":-0.36018770933151245,"38":0.5648090243339539,"39":-0.21021708846092224,"40":0.20398390293121338,"41":-0.3402411937713623,"42":0.03977431356906891,"43":0.16556942462921143,"44":-0.134981170296669,"45":0.036155182868242264,"46":-0.2622949182987213,"47":0.026503177359700203,"48":-0.01768699660897255,"49":-0.4728919565677643,"50":-0.06422684341669083,"51":-0.25476497411727905,"52":0.0906204879283905,"53":-0.09458167850971222,"54":0.5123031735420227,"55":0.014695636928081512,"56":0.377051442861557,"57":0.40227174758911133,"58":-0.14612562954425812}},"30":{"bias":1.7405409812927246,"weights":{"0":-0.4503597021102905,"1":1.4978419542312622,"2":2.935385227203369,"3":-1.0734437704086304,"4":-1.1606813669204712,"5":0.1777522712945938,"6":1.3971326351165771,"7":0.6306967735290527,"8":0.6310548782348633,"9":0.27687448263168335,"10":0.3129880130290985,"11":-0.29516351222991943,"12":-0.6209198832511902,"13":0.2853069603443146,"14":0.08353794366121292,"15":-0.5414845943450928,"16":0.17327980697155,"17":0.475500226020813,"18":0.04901520535349846,"19":0.6623998880386353,"20":-0.7344390749931335,"21":0.01127050444483757,"22":0.4254132807254791,"23":-0.7071236968040466,"24":-0.8319437503814697,"25":-0.23529253900051117,"26":-0.5590550899505615,"27":-0.7708841562271118,"28":-0.8064621686935425,"29":-0.2066897600889206,"30":-0.25358736515045166,"31":-0.5792152881622314,"32":-0.2664637863636017,"33":0.1303684115409851,"34":-0.02461286447942257,"35":-0.6882227063179016,"36":0.1376144289970398,"37":0.3736976087093353,"38":-0.22379900515079498,"39":0.1043444573879242,"40":-0.8918609023094177,"41":0.20116907358169556,"42":-0.1734025776386261,"43":-0.536526083946228,"44":-0.5251110196113586,"45":-0.057588521391153336,"46":0.8897340297698975,"47":0.010353751480579376,"48":-0.7869764566421509,"49":0.12945517897605896,"50":0.06652464717626572,"51":0.21264339983463287,"52":0.10652271658182144,"53":-0.06732769310474396,"54":-0.7934401035308838,"55":0.25086909532546997,"56":-0.5191811919212341,"57":0.10332465916872025,"58":-0.19598492980003357}},"31":{"bias":0.6628609895706177,"weights":{"0":-0.2786099910736084,"1":-0.36395856738090515,"2":-0.16212308406829834,"3":-0.9997642636299133,"4":-0.9721572995185852,"5":0.4369465708732605,"6":-0.2686886489391327,"7":-0.0003278993535786867,"8":-0.19135642051696777,"9":-0.16643135249614716,"10":-0.6033304333686829,"11":0.01185614988207817,"12":0.16036830842494965,"13":-0.0339435338973999,"14":0.26342982053756714,"15":-0.10346908122301102,"16":-0.5021332502365112,"17":-0.6706594228744507,"18":0.2566613256931305,"19":0.3300861418247223,"20":-0.5759334564208984,"21":-0.616296648979187,"22":-0.16073903441429138,"23":0.11772911250591278,"24":-0.37472105026245117,"25":0.2020774632692337,"26":0.22096960246562958,"27":0.019446831196546555,"28":-0.4602139890193939,"29":-0.2645169496536255,"30":0.2743567228317261,"31":0.04471850395202637,"32":-0.31645727157592773,"33":0.20270495116710663,"34":-0.04911206290125847,"35":-0.027142129838466644,"36":-0.2842792570590973,"37":-0.25213882327079773,"38":0.39578935503959656,"39":-0.2910389304161072,"40":0.04586873576045036,"41":-0.3467758893966675,"42":0.03829985484480858,"43":0.02938273176550865,"44":-0.17717622220516205,"45":0.1258784681558609,"46":0.44137856364250183,"47":0.012706058099865913,"48":-0.7151668071746826,"49":-0.03697711229324341,"50":0.18202880024909973,"51":0.42978301644325256,"52":-0.356442391872406,"53":-0.38364601135253906,"54":-0.10946914553642273,"55":0.4817536473274231,"56":-0.232608824968338,"57":-0.19257774949073792,"58":-0.017674706876277924}},"32":{"bias":1.3344422578811646,"weights":{"0":-0.38481518626213074,"1":-1.7253855466842651,"2":-3.3731698989868164,"3":-2.2780566215515137,"4":-0.9124796986579895,"5":-1.3484190702438354,"6":-0.4301680624485016,"7":-0.03317176178097725,"8":-1.5946831703186035,"9":-2.7693822383880615,"10":-0.2994493246078491,"11":1.7146806716918945,"12":-1.4092004299163818,"13":0.5617738962173462,"14":1.1309514045715332,"15":-0.5982602834701538,"16":-2.827594757080078,"17":-1.6136010885238647,"18":0.7618584036827087,"19":0.3718991279602051,"20":-2.19380521774292,"21":-1.0503156185150146,"22":-1.0458868741989136,"23":2.243332862854004,"24":-1.0847617387771606,"25":0.14334604144096375,"26":1.4244368076324463,"27":1.4789966344833374,"28":-1.7637135982513428,"29":0.5422368049621582,"30":1.54977548122406,"31":2.3259894847869873,"32":-1.3054542541503906,"33":1.2743550539016724,"34":-0.3435993194580078,"35":1.4613664150238037,"36":-1.4839102029800415,"37":0.4868660271167755,"38":0.47775575518608093,"39":0.5704570412635803,"40":0.052587300539016724,"41":-0.8740723133087158,"42":0.46396735310554504,"43":1.2418320178985596,"44":-1.3485970497131348,"45":-0.21359142661094666,"46":0.9448755383491516,"47":0.13510380685329437,"48":-1.852409839630127,"49":1.4169315099716187,"50":-0.17253774404525757,"51":1.291609764099121,"52":-2.688701629638672,"53":0.12850981950759888,"54":-1.0650743246078491,"55":0.6028645038604736,"56":-1.7442477941513062,"57":-0.8535885214805603,"58":0.5473179817199707}},"33":{"bias":1.4095503091812134,"weights":{"0":-0.1522362381219864,"1":-0.3218984305858612,"2":3.9199275970458984,"3":-1.673183560371399,"4":-1.2118518352508545,"5":0.5832040309906006,"6":0.09667807072401047,"7":1.0043772459030151,"8":0.5114025473594666,"9":0.03949528560042381,"10":-0.18519258499145508,"11":-0.596724808216095,"12":-0.6163670420646667,"13":-0.33011114597320557,"14":0.021409567445516586,"15":-0.8055891990661621,"16":0.08032194525003433,"17":0.371316522359848,"18":0.10285409539937973,"19":0.5290105938911438,"20":-0.676434338092804,"21":-0.3660309910774231,"22":0.9492024183273315,"23":-0.7039204239845276,"24":-0.8407664895057678,"25":-0.18040187656879425,"26":-0.0816587507724762,"27":-1.432826042175293,"28":-0.7988775968551636,"29":-0.3072882294654846,"30":-0.2344437688589096,"31":-0.8028770685195923,"32":0.2672724425792694,"33":0.02781156450510025,"34":0.23054662346839905,"35":-0.35608384013175964,"36":0.8030353784561157,"37":-0.2989559471607208,"38":0.4264858663082123,"39":-0.6149156093597412,"40":-0.03893410041928291,"41":0.1973387897014618,"42":0.19024139642715454,"43":-1.24322509765625,"44":0.4533867835998535,"45":0.4373638927936554,"46":0.6128258109092712,"47":-0.6853744387626648,"48":-0.40929198265075684,"49":-0.48823195695877075,"50":0.9609506726264954,"51":0.25257962942123413,"52":0.2625037133693695,"53":-0.6414903402328491,"54":0.22485926747322083,"55":0.4361598491668701,"56":-0.6194322109222412,"57":0.5261855125427246,"58":0.29717713594436646}},"34":{"bias":0.8460296392440796,"weights":{"0":0.7010194063186646,"1":0.1921665370464325,"2":0.4172281324863434,"3":-1.1138688325881958,"4":-1.1226221323013306,"5":1.3119641542434692,"6":1.1376993656158447,"7":-0.1214577853679657,"8":-0.40422192215919495,"9":0.3840564787387848,"10":-0.01654265634715557,"11":-0.034480806440114975,"12":0.1874222606420517,"13":-0.156638965010643,"14":-0.19766952097415924,"15":0.014733690768480301,"16":0.05499613657593727,"17":-0.49429336190223694,"18":-0.0883086621761322,"19":0.2951872944831848,"20":-0.2040320634841919,"21":-0.21336667239665985,"22":-0.008827682584524155,"23":0.1381215900182724,"24":-0.2672243118286133,"25":-0.15933549404144287,"26":-0.2217501997947693,"27":-0.06930896639823914,"28":0.009540751576423645,"29":-0.4736359119415283,"30":-0.19062243402004242,"31":-0.07323853671550751,"32":-0.09885579347610474,"33":0.09129109978675842,"34":-0.18534022569656372,"35":-0.07416997849941254,"36":0.3146674633026123,"37":0.07609692960977554,"38":0.21593503654003143,"39":-0.2803204655647278,"40":0.03145632892847061,"41":-0.4322541058063507,"42":-0.6077631115913391,"43":0.11578591167926788,"44":0.050767313688993454,"45":0.07497607171535492,"46":0.02854006551206112,"47":0.0810464471578598,"48":-0.26771724224090576,"49":-0.3468702435493469,"50":-0.31329768896102905,"51":0.19944581389427185,"52":0.41825878620147705,"53":-0.29823923110961914,"54":-0.26961764693260193,"55":0.058982912451028824,"56":-0.5103262066841125,"57":-0.009442671202123165,"58":-0.5803573131561279}},"35":{"bias":-2.398560047149658,"weights":{"0":-2.022491455078125,"1":0.6624997854232788,"2":-1.2787258625030518,"3":2.3938894271850586,"4":1.5973466634750366,"5":2.251722574234009,"6":-3.3741185665130615,"7":0.557718813419342,"8":0.25093579292297363,"9":1.4696577787399292,"10":-1.4271429777145386,"11":-0.7078253626823425,"12":1.917481541633606,"13":-0.6928147673606873,"14":-0.09546877443790436,"15":0.295359343290329,"16":1.3837826251983643,"17":-0.4476727545261383,"18":-0.3437151610851288,"19":-1.2136226892471313,"20":2.2589898109436035,"21":-0.38095414638519287,"22":0.2159222513437271,"23":0.3022923469543457,"24":2.0512237548828125,"25":0.02607719972729683,"26":0.5111038088798523,"27":0.07786817103624344,"28":3.10947847366333,"29":-1.3199355602264404,"30":0.11749795824289322,"31":-0.7964035868644714,"32":0.9275228977203369,"33":-1.6766045093536377,"34":0.06667819619178772,"35":0.5860258340835571,"36":0.16861554980278015,"37":-1.8012073040008545,"38":0.16650810837745667,"39":0.3344338536262512,"40":1.4234397411346436,"41":-0.5520950555801392,"42":-0.12317582964897156,"43":1.037453532218933,"44":0.4610934555530548,"45":-0.7082189917564392,"46":-1.031294584274292,"47":0.6793878078460693,"48":1.3840962648391724,"49":-0.934151291847229,"50":-0.5010337233543396,"51":-0.5378890633583069,"52":1.704634666442871,"53":-1.1379210948944092,"54":1.0084906816482544,"55":0.53196781873703,"56":0.964335560798645,"57":-0.2722437083721161,"58":0.34631481766700745}},"36":{"bias":0.8409342765808105,"weights":{"0":-0.07099638879299164,"1":-0.06504203379154205,"2":2.572777509689331,"3":-0.9951012134552002,"4":-0.7420839667320251,"5":-0.12442679703235626,"6":0.2717491090297699,"7":0.7613444924354553,"8":0.08255241811275482,"9":-0.07513824105262756,"10":-0.33309802412986755,"11":-0.08491723239421844,"12":-0.1723456084728241,"13":0.0869171991944313,"14":-0.05552002042531967,"15":-0.6413769721984863,"16":-0.16390717029571533,"17":0.12782129645347595,"18":0.1672087460756302,"19":0.1234527975320816,"20":-0.5464938879013062,"21":-0.3971807062625885,"22":0.5732804536819458,"23":-0.4264569580554962,"24":-0.33864837884902954,"25":-0.181989386677742,"26":0.05771702900528908,"27":-0.7868874669075012,"28":-0.4208310842514038,"29":-0.15869587659835815,"30":-0.07452358305454254,"31":-0.4438652992248535,"32":-0.04905346408486366,"33":0.017468571662902832,"34":-0.1391686052083969,"35":-0.23730899393558502,"36":0.4892004728317261,"37":0.017366494983434677,"38":-0.029181789606809616,"39":-0.4696108102798462,"40":-0.21202488243579865,"41":-0.0064401328563690186,"42":0.1916472464799881,"43":-0.8364644050598145,"44":0.3064074218273163,"45":0.18315809965133667,"46":0.43231523036956787,"47":-0.3388204276561737,"48":-0.22333085536956787,"49":-0.3904452919960022,"50":0.43841663002967834,"51":0.2294851392507553,"52":0.2190353274345398,"53":-0.311899870634079,"54":0.14109592139720917,"55":0.0344056636095047,"56":-0.38198694586753845,"57":0.29304301738739014,"58":0.09362471103668213}},"37":{"bias":1.6273667812347412,"weights":{"0":-0.9312127232551575,"1":1.5484741926193237,"2":1.2354087829589844,"3":-0.8016320466995239,"4":-0.3909521698951721,"5":-0.851779580116272,"6":3.491370677947998,"7":-0.11255805939435959,"8":0.17250338196754456,"9":-0.13469937443733215,"10":1.4184203147888184,"11":-0.04263763129711151,"12":-0.7801526784896851,"13":1.0198445320129395,"14":-0.31416961550712585,"15":0.24841392040252686,"16":0.1346505731344223,"17":1.08382248878479,"18":-0.33879226446151733,"19":0.6393633484840393,"20":-1.1847310066223145,"21":0.7926790714263916,"22":-0.4871525764465332,"23":-1.070056438446045,"24":-1.4128984212875366,"25":0.6849106550216675,"26":-0.7540920376777649,"27":-0.5041472315788269,"28":-1.7025060653686523,"29":0.9235093593597412,"30":-0.5028491020202637,"31":-0.5978515148162842,"32":-0.5041833519935608,"33":1.0044562816619873,"34":-0.3462151288986206,"35":-0.7487176656723022,"36":-0.06985103338956833,"37":2.1912436485290527,"38":-0.7788985371589661,"39":0.09580866992473602,"40":-1.5113446712493896,"41":0.2777508795261383,"42":-0.8037471175193787,"43":-0.3825715482234955,"44":-0.9612797498703003,"45":0.3857705295085907,"46":0.5589958429336548,"47":-0.025741413235664368,"48":-1.0953245162963867,"49":0.6965349912643433,"50":-0.4400995671749115,"51":0.03484225645661354,"52":-0.5553767085075378,"53":0.9112979173660278,"54":-1.307594656944275,"55":-0.8142399191856384,"56":-0.8282790780067444,"57":-0.2788104712963104,"58":-0.0618491992354393}},"38":{"bias":1.3657240867614746,"weights":{"0":-0.1672983318567276,"1":-1.1477054357528687,"2":2.972501277923584,"3":-1.5229345560073853,"4":-1.383530616760254,"5":1.4070535898208618,"6":-0.278499573469162,"7":1.1066961288452148,"8":0.33490854501724243,"9":0.2232261747121811,"10":-0.8667765259742737,"11":0.053261466324329376,"12":0.07361265271902084,"13":-0.2063082754611969,"14":0.2547602653503418,"15":-0.589298665523529,"16":0.00043446398922242224,"17":-0.19621942937374115,"18":0.3722091317176819,"19":-0.054858818650245667,"20":-0.38643568754196167,"21":-0.8434538245201111,"22":0.8229271769523621,"23":-0.31859248876571655,"24":-0.5588534474372864,"25":-0.02867317758500576,"26":0.14261172711849213,"27":-1.1232956647872925,"28":-0.3840717375278473,"29":-0.39948204159736633,"30":0.5639544725418091,"31":-0.723534882068634,"32":0.0037392510566860437,"33":0.06482525169849396,"34":0.1234128475189209,"35":-0.570947527885437,"36":0.30318963527679443,"37":-0.5069946646690369,"38":1.0197885036468506,"39":-0.8111395239830017,"40":-0.052109722048044205,"41":-0.380277544260025,"42":0.2669099271297455,"43":-0.7946504354476929,"44":0.18350020051002502,"45":-0.24388442933559418,"46":0.6759526133537292,"47":-0.6869187355041504,"48":-0.25627923011779785,"49":-0.46667739748954773,"50":0.7857068777084351,"51":0.20943918824195862,"52":0.66895592212677,"53":-0.9015044569969177,"54":0.14426255226135254,"55":0.18092232942581177,"56":-0.3755239248275757,"57":0.6151834726333618,"58":-0.1842406541109085}},"39":{"bias":1.74036705493927,"weights":{"0":0.3715611398220062,"1":0.794734001159668,"2":1.0601595640182495,"3":-1.807990312576294,"4":-1.219641089439392,"5":-0.2341413050889969,"6":1.8493659496307373,"7":-0.13105875253677368,"8":0.09050487726926804,"9":-0.45393601059913635,"10":0.5513688325881958,"11":0.21162839233875275,"12":-0.6932660341262817,"13":0.3178364038467407,"14":0.06360531598329544,"15":-0.252030611038208,"16":-0.39431512355804443,"17":0.519856870174408,"18":0.007496349513530731,"19":0.6315435767173767,"20":-1.1813795566558838,"21":-0.11020585894584656,"22":-0.22335472702980042,"23":-0.09427790343761444,"24":-1.1921629905700684,"25":-0.1651724874973297,"26":-0.41297024488449097,"27":-0.11820684373378754,"28":-1.5576503276824951,"29":0.3478602468967438,"30":-0.04386846348643303,"31":0.05684749409556389,"32":-0.37900906801223755,"33":0.8023057579994202,"34":-0.31555622816085815,"35":-0.3440617322921753,"36":-0.194111168384552,"37":0.6792352199554443,"38":-0.03876534849405289,"39":0.04963347688317299,"40":-0.9153313636779785,"41":-0.03413912653923035,"42":-0.42342808842658997,"43":-0.039201147854328156,"44":-0.5144088864326477,"45":0.34513550996780396,"46":0.7445443868637085,"47":-0.06892003118991852,"48":-0.9730139374732971,"49":0.4552299380302429,"50":-0.04404468834400177,"51":0.7067428231239319,"52":-0.7602546215057373,"53":0.18256151676177979,"54":-0.6449871063232422,"55":-0.04641595855355263,"56":-0.9971489906311035,"57":0.013292076997458935,"58":-0.1975436508655548}},"40":{"bias":2.2941067218780518,"weights":{"0":-0.7404603362083435,"1":0.8183102607727051,"2":-0.6446713209152222,"3":-1.410422444343567,"4":-1.4186701774597168,"5":1.0315346717834473,"6":2.6304562091827393,"7":-0.767555296421051,"8":-0.49065688252449036,"9":0.13338981568813324,"10":0.4864387810230255,"11":0.4317767024040222,"12":-0.201664537191391,"13":0.05588991567492485,"14":0.14194469153881073,"15":0.11307906359434128,"16":-0.6855670809745789,"17":-0.26760435104370117,"18":0.08943036198616028,"19":1.16292142868042,"20":-0.5967488288879395,"21":0.21149776875972748,"22":-0.4402076005935669,"23":0.22683048248291016,"24":-1.1574337482452393,"25":0.3979048430919647,"26":-0.4741916358470917,"27":0.8595311641693115,"28":-0.8443357348442078,"29":0.055211812257766724,"30":0.30767324566841125,"31":0.0005753732984885573,"32":-0.7887277007102966,"33":0.6203538179397583,"34":-0.8101769685745239,"35":0.28201931715011597,"36":0.1403983235359192,"37":0.8855875134468079,"38":0.22358885407447815,"39":0.20528720319271088,"40":-0.910888135433197,"41":-0.5363297462463379,"42":-0.502801239490509,"43":0.5160966515541077,"44":-0.7050909996032715,"45":-0.03322223573923111,"46":0.5102351903915405,"47":0.6489425301551819,"48":-1.191611647605896,"49":-0.10620520263910294,"50":-0.6611208319664001,"51":0.3833909332752228,"52":-0.4981209337711334,"53":-0.07827837020158768,"54":-0.8299744725227356,"55":-0.05294501781463623,"56":-0.8823871612548828,"57":-1.0631742477416992,"58":-0.75115966796875}},"41":{"bias":-1.1294615268707275,"weights":{"0":-0.24101030826568604,"1":-0.5453843474388123,"2":-1.3978383541107178,"3":0.6938952803611755,"4":0.9390710592269897,"5":-0.9603875875473022,"6":-1.8105568885803223,"7":-0.7761688232421875,"8":0.057554878294467926,"9":-0.43933549523353577,"10":-0.7072770595550537,"11":-0.003908075392246246,"12":0.13662129640579224,"13":0.08500298112630844,"14":-0.03421034291386604,"15":-0.0009564161882735789,"16":-0.0779980793595314,"17":0.036902282387018204,"18":0.0445062555372715,"19":-0.5433714389801025,"20":0.30292266607284546,"21":0.2191447764635086,"22":-0.11402982473373413,"23":0.08820150792598724,"24":0.4733753204345703,"25":-0.18594074249267578,"26":0.13895562291145325,"27":0.42136332392692566,"28":0.09935930371284485,"29":0.15419521927833557,"30":-0.28234753012657166,"31":0.22798335552215576,"32":-0.047211240977048874,"33":-0.1377212107181549,"34":0.128400057554245,"35":-0.019669098779559135,"36":-0.46479612588882446,"37":-0.4023154079914093,"38":0.012572177685797215,"39":0.21615582704544067,"40":0.5369441509246826,"41":0.40962880849838257,"42":0.3053727447986603,"43":0.3573794960975647,"44":0.09823092073202133,"45":0.15286268293857574,"46":-0.28262409567832947,"47":0.2981325387954712,"48":0.14348940551280975,"49":0.34674084186553955,"50":-0.2014789879322052,"51":0.079860158264637,"52":-0.6371519565582275,"53":0.2322644293308258,"54":0.40486621856689453,"55":0.14602024853229523,"56":0.4090767800807953,"57":0.2241196632385254,"58":0.003051245119422674}},"42":{"bias":-1.178912878036499,"weights":{"0":0.06693878769874573,"1":1.5627615451812744,"2":-2.4417312145233154,"3":1.2547416687011719,"4":1.7561252117156982,"5":-5.162069797515869,"6":1.9646028280258179,"7":-1.0211974382400513,"8":0.09899284690618515,"9":-1.8616981506347656,"10":1.8560761213302612,"11":0.5094584226608276,"12":-0.646019697189331,"13":1.6572022438049316,"14":-0.4870868921279907,"15":0.16232557594776154,"16":-0.07594943046569824,"17":0.0713895708322525,"18":-1.783494472503662,"19":-0.35492557287216187,"20":0.34506240487098694,"21":0.38407742977142334,"22":-1.9747458696365356,"23":0.9007622003555298,"24":1.568279504776001,"25":-0.7714659571647644,"26":0.528483510017395,"27":0.908194899559021,"28":-0.3035624623298645,"29":1.167372226715088,"30":-0.13035832345485687,"31":1.9902275800704956,"32":-0.06068143993616104,"33":0.3981167674064636,"34":-0.5835636258125305,"35":0.607313334941864,"36":0.30664291977882385,"37":0.16931000351905823,"38":-2.1769847869873047,"39":1.1297093629837036,"40":0.2694566249847412,"41":0.9711413979530334,"42":0.42525795102119446,"43":0.38302987813949585,"44":0.2424674779176712,"45":-0.5006094574928284,"46":-0.19313794374465942,"47":0.8891409635543823,"48":0.7458745241165161,"49":0.964344322681427,"50":-1.2074083089828491,"51":-0.0370449535548687,"52":-1.2777734994888306,"53":0.9186649322509766,"54":-1.6134908199310303,"55":-0.38294872641563416,"56":0.039977993816137314,"57":-1.03952157497406,"58":0.15328817069530487}},"43":{"bias":-0.08864367753267288,"weights":{"0":-1.2300647497177124,"1":0.034175340086221695,"2":-6.1141676902771,"3":0.6411730647087097,"4":0.6525355577468872,"5":-0.9424137473106384,"6":2.398500442504883,"7":-1.8406345844268799,"8":-2.1651201248168945,"9":0.32186615467071533,"10":0.38621199131011963,"11":1.8837546110153198,"12":1.6889485120773315,"13":0.7113463878631592,"14":-0.050411488860845566,"15":1.149198055267334,"16":0.038303036242723465,"17":-1.4222973585128784,"18":-0.03524547070264816,"19":0.13439688086509705,"20":1.531907081604004,"21":-0.279625803232193,"22":-2.539085626602173,"23":0.9682509303092957,"24":0.3661305606365204,"25":0.33922940492630005,"26":-0.06760424375534058,"27":2.2583720684051514,"28":-0.1281743347644806,"29":0.40014612674713135,"30":0.14354166388511658,"31":0.6125919222831726,"32":-0.929186999797821,"33":0.7630807757377625,"34":-0.9754946231842041,"35":0.6518279910087585,"36":-0.900749146938324,"37":1.1893335580825806,"38":0.05515559762716293,"39":0.6029828786849976,"40":0.18334732949733734,"41":-0.4517575204372406,"42":-0.4832022190093994,"43":2.0526092052459717,"44":-0.1326168328523636,"45":-0.5948714017868042,"46":-0.3444660007953644,"47":0.6880280375480652,"48":-0.08481839299201965,"49":0.9222958087921143,"50":-1.439244031906128,"51":0.6093904376029968,"52":-0.5504113435745239,"53":0.40465813875198364,"54":-1.7452212572097778,"55":-0.8648115992546082,"56":0.3583879768848419,"57":-1.5929259061813354,"58":-1.2961795330047607}},"44":{"bias":-0.656282365322113,"weights":{"0":-0.606177806854248,"1":0.15606094896793365,"2":0.32888102531433105,"3":0.43767857551574707,"4":0.505472719669342,"5":-1.8059742450714111,"6":-0.9487108588218689,"7":-0.16548867523670197,"8":0.6237052083015442,"9":-0.5987163782119751,"10":-0.05450575426220894,"11":-0.21427303552627563,"12":-0.39321571588516235,"13":0.41863974928855896,"14":0.3075794279575348,"15":-0.32770249247550964,"16":-0.022230368107557297,"17":0.30205202102661133,"18":-0.21224680542945862,"19":-0.474955290555954,"20":-0.1611420065164566,"21":0.10985443741083145,"22":0.11921807378530502,"23":-0.08703698217868805,"24":0.3675428628921509,"25":-0.24110610783100128,"26":0.10016972571611404,"27":0.15291036665439606,"28":0.07758191227912903,"29":0.3019232451915741,"30":-0.26963481307029724,"31":0.40112605690956116,"32":0.08773312717676163,"33":0.1118595153093338,"34":0.042075250297784805,"35":0.04430614784359932,"36":0.19799327850341797,"37":-0.5528784990310669,"38":-0.40771085023880005,"39":0.16461771726608276,"40":-0.0011576858814805746,"41":0.5911759734153748,"42":0.37571534514427185,"43":-0.01849128119647503,"44":0.08318758010864258,"45":-0.10441435128450394,"46":0.08161766082048416,"47":0.06516285985708237,"48":0.3593038022518158,"49":0.2817438840866089,"50":0.26052772998809814,"51":0.14107607305049896,"52":-0.462700754404068,"53":0.11316219717264175,"54":0.168570414185524,"55":0.01947307400405407,"56":0.16743668913841248,"57":-0.0021577586885541677,"58":0.2716456651687622}},"45":{"bias":0.6317557096481323,"weights":{"0":0.17896558344364166,"1":-0.46577584743499756,"2":-1.8506053686141968,"3":-0.680549681186676,"4":-0.8307093381881714,"5":3.1016666889190674,"6":0.3649511933326721,"7":-0.4053957164287567,"8":-1.100848913192749,"9":1.4942724704742432,"10":-0.4124079942703247,"11":0.46009668707847595,"12":0.6106391549110413,"13":-0.8724021315574646,"14":-0.31633973121643066,"15":0.8183255195617676,"16":-0.24312132596969604,"17":-0.8527904152870178,"18":0.3789668083190918,"19":0.5288163423538208,"20":0.3570450246334076,"21":-0.13427360355854034,"22":-0.39079809188842773,"23":0.330269992351532,"24":-0.44718116521835327,"25":0.7613412141799927,"26":-0.3955622613430023,"27":0.3558627665042877,"28":0.35578444600105286,"29":-0.8375139236450195,"30":0.007314884569495916,"31":0.015363349579274654,"32":-0.20854812860488892,"33":-0.2790830135345459,"34":-0.18637202680110931,"35":0.03892906382679939,"36":-0.5781451463699341,"37":0.3602505624294281,"38":0.787538468837738,"39":-0.4487391412258148,"40":0.09498583525419235,"41":-1.1867454051971436,"42":-0.35012608766555786,"43":1.0390100479125977,"44":-0.4575687348842621,"45":0.026858706027269363,"46":-0.16265098750591278,"47":0.5164324641227722,"48":-0.4108661115169525,"49":-0.19841521978378296,"50":-0.4791499376296997,"51":-0.11078227311372757,"52":0.2140982747077942,"53":-0.22528371214866638,"54":0.3473759591579437,"55":0.2436162531375885,"56":0.3163318336009979,"57":-0.22990427911281586,"58":-0.7352750897407532}},"46":{"bias":1.1873096227645874,"weights":{"0":0.3126743733882904,"1":0.2604927718639374,"2":0.30282294750213623,"3":-1.1967649459838867,"4":-0.9362147450447083,"5":0.2646043300628662,"6":1.3514262437820435,"7":0.048902612179517746,"8":-0.43454253673553467,"9":-0.30594226717948914,"10":0.17794138193130493,"11":0.30102258920669556,"12":-0.21734875440597534,"13":0.3217247724533081,"14":-0.18138930201530457,"15":-0.09468778967857361,"16":-0.29721799492836,"17":-0.22041308879852295,"18":-0.07969789952039719,"19":0.1980765461921692,"20":-0.5955582857131958,"21":-0.10281947255134583,"22":-0.1620180904865265,"23":0.10921038687229156,"24":-0.6280885934829712,"25":0.15884174406528473,"26":-0.4956241846084595,"27":-0.056857168674468994,"28":-0.7329330444335938,"29":0.2009422928094864,"30":0.3316674530506134,"31":0.015227562747895718,"32":-0.025376439094543457,"33":0.4399418532848358,"34":-0.48451972007751465,"35":0.15163105726242065,"36":0.007173636928200722,"37":0.3283778727054596,"38":0.2574044167995453,"39":-0.1264042854309082,"40":-0.3458464443683624,"41":-0.2501766085624695,"42":-0.3523358106613159,"43":-0.04735172912478447,"44":-0.27026891708374023,"45":0.2601251006126404,"46":0.013921956531703472,"47":0.036635011434555054,"48":-0.7668837904930115,"49":-0.053707465529441833,"50":-0.22725151479244232,"51":0.3931654989719391,"52":-0.0652492344379425,"53":-0.12191623449325562,"54":-0.433744341135025,"55":-0.0931101143360138,"56":-0.49515119194984436,"57":-0.05775918439030647,"58":-0.4034635126590729}},"47":{"bias":-1.9152523279190063,"weights":{"0":-0.5776628255844116,"1":-0.8873071074485779,"2":-2.1351630687713623,"3":1.4223575592041016,"4":1.4893797636032104,"5":-2.737048864364624,"6":-2.4155445098876953,"7":-0.962047815322876,"8":0.4699789881706238,"9":-1.1217607259750366,"10":-0.2086927443742752,"11":-0.08691781759262085,"12":-0.12227316200733185,"13":0.3874196708202362,"14":0.11232130229473114,"15":-0.07746288925409317,"16":-0.5720413327217102,"17":0.04519302397966385,"18":-0.5124254822731018,"19":-0.7599090337753296,"20":-0.11057977378368378,"21":0.5270095467567444,"22":-0.4365246295928955,"23":0.29432258009910583,"24":0.7970709800720215,"25":-0.15553095936775208,"26":0.9115921258926392,"27":0.557612419128418,"28":-0.08610940724611282,"29":0.7361946702003479,"30":0.2920633554458618,"31":0.6054301857948303,"32":-0.069134421646595,"33":0.061773285269737244,"34":0.33313924074172974,"35":0.5830042958259583,"36":-0.8609876036643982,"37":-0.5783050656318665,"38":-0.2821098864078522,"39":0.4928467869758606,"40":0.47315654158592224,"41":0.9028463959693909,"42":1.2297921180725098,"43":0.23790767788887024,"44":-0.2764580547809601,"45":0.10691197216510773,"46":-0.026287617161870003,"47":0.15829820930957794,"48":0.5828310251235962,"49":0.5311596393585205,"50":0.09133210778236389,"51":-0.1552969217300415,"52":-0.762857973575592,"53":0.3969056010246277,"54":0.41661182045936584,"55":-0.007464441936463118,"56":0.6255357265472412,"57":0.015868021175265312,"58":0.9048972129821777}},"48":{"bias":2.1624579429626465,"weights":{"0":0.03201610967516899,"1":-0.5368708372116089,"2":4.305274486541748,"3":-2.6313769817352295,"4":-1.9285904169082642,"5":-1.116886019706726,"6":-0.1797860562801361,"7":1.8101706504821777,"8":0.7751352190971375,"9":-1.53126060962677,"10":-0.5277249217033386,"11":0.0011898843804374337,"12":-1.1966514587402344,"13":0.6039648652076721,"14":0.48577409982681274,"15":-1.5548492670059204,"16":-0.7523242235183716,"17":0.003553071990609169,"18":0.6602703332901001,"19":0.25584709644317627,"20":-1.609899640083313,"21":-1.147749900817871,"22":0.7882372736930847,"23":0.26714321970939636,"24":-0.9860538840293884,"25":-0.572662889957428,"26":0.009165935218334198,"27":-1.1565101146697998,"28":-1.7277297973632812,"29":0.008575698360800743,"30":0.21044570207595825,"31":0.2332928478717804,"32":-0.0030908905901014805,"33":0.986428439617157,"34":0.2908690869808197,"35":-0.4734949469566345,"36":0.4618566036224365,"37":-0.4559713304042816,"38":0.2349807173013687,"39":-0.6805691719055176,"40":0.23774567246437073,"41":-0.09639663249254227,"42":0.12279210239648819,"43":-1.3029834032058716,"44":0.5910035967826843,"45":0.37913331389427185,"46":1.4739104509353638,"47":-0.792608916759491,"48":-0.47720667719841003,"49":0.5435199737548828,"50":1.0175455808639526,"51":0.9928749799728394,"52":-0.7946372628211975,"53":-0.30259445309638977,"54":-0.5780266523361206,"55":0.6084855198860168,"56":-1.347798228263855,"57":0.7843250632286072,"58":0.5228810906410217}},"49":{"bias":0.8078835010528564,"weights":{"0":0.44623449444770813,"1":-0.21996429562568665,"2":0.7666019201278687,"3":-1.1941113471984863,"4":-1.3890585899353027,"5":1.0474343299865723,"6":-0.2096395045518875,"7":0.4263068437576294,"8":-0.03232439607381821,"9":0.39118853211402893,"10":-0.5927321910858154,"11":-0.08444768935441971,"12":0.27393990755081177,"13":-0.1508483737707138,"14":0.20081055164337158,"15":-0.12099568545818329,"16":-0.3747052550315857,"17":-0.2663223147392273,"18":0.48239821195602417,"19":0.2221658080816269,"20":-0.2545730471611023,"21":-0.6660732626914978,"22":0.16818445920944214,"23":-0.04749293997883797,"24":-0.6270866990089417,"25":0.10817814618349075,"26":0.05502946302294731,"27":-0.04144671931862831,"28":-0.22224120795726776,"29":-0.5683736801147461,"30":0.0717589259147644,"31":-0.22987030446529388,"32":-0.49081847071647644,"33":0.22650153934955597,"34":-0.18084681034088135,"35":-0.0062986696138978004,"36":0.03809167072176933,"37":0.12522950768470764,"38":0.7312785387039185,"39":-0.48211759328842163,"40":-0.23657943308353424,"41":-0.33096298575401306,"42":-0.052387457340955734,"43":0.03005731664597988,"44":-0.11040166020393372,"45":-0.01458884309977293,"46":0.18895059823989868,"47":-0.3357011079788208,"48":-0.5641610622406006,"49":-0.12080911546945572,"50":0.12922583520412445,"51":0.33622896671295166,"52":0.046671658754348755,"53":-0.4324548542499542,"54":-0.06406590342521667,"55":0.2184673696756363,"56":-0.2652483284473419,"57":0.041023701429367065,"58":-0.17965078353881836}},"50":{"bias":0.06956733763217926,"weights":{"0":0.2769298851490021,"1":-0.1701490432024002,"2":-2.859407663345337,"3":-0.8542293906211853,"4":-0.37882745265960693,"5":-2.1804604530334473,"6":-1.1055573225021362,"7":-1.0125480890274048,"8":-0.719072699546814,"9":-1.32176673412323,"10":-0.5880139470100403,"11":0.8467300534248352,"12":0.11866766959428787,"13":0.6064165830612183,"14":0.31350651383399963,"15":-0.11234154552221298,"16":-1.207581639289856,"17":-0.9289339184761047,"18":0.12045101076364517,"19":-0.2151726931333542,"20":-0.2949804663658142,"21":-0.692977249622345,"22":-1.1200984716415405,"23":1.0362436771392822,"24":-0.4416414499282837,"25":-0.07517893612384796,"26":0.3619920313358307,"27":1.2069135904312134,"28":-0.9958776235580444,"29":0.3437958359718323,"30":0.13096897304058075,"31":0.9632891416549683,"32":-0.9193926453590393,"33":0.6907641887664795,"34":-0.12044098228216171,"35":0.6162505745887756,"36":-1.0332293510437012,"37":0.07349678874015808,"38":0.2679637670516968,"39":0.12394615262746811,"40":0.4573064148426056,"41":0.17723985016345978,"42":0.2134605199098587,"43":0.4242136478424072,"44":-0.19483552873134613,"45":0.15631824731826782,"46":0.7785173058509827,"47":0.6051127314567566,"48":-0.5633111596107483,"49":1.422529935836792,"50":-0.4762918949127197,"51":0.6043856739997864,"52":-1.7715855836868286,"53":0.17262715101242065,"54":-0.6328665614128113,"55":0.13094741106033325,"56":-0.31617772579193115,"57":-0.2123628556728363,"58":-0.12651453912258148}},"51":{"bias":-2.3391714096069336,"weights":{"0":-2.0064520835876465,"1":0.08132442086935043,"2":1.1694304943084717,"3":2.952584743499756,"4":2.305281400680542,"5":-0.5358284711837769,"6":-1.769386887550354,"7":-0.03708609938621521,"8":1.513199806213379,"9":0.0512661375105381,"10":-0.09946706891059875,"11":-0.06988681852817535,"12":0.18414795398712158,"13":-0.12945620715618134,"14":-0.11957570165395737,"15":0.14912471175193787,"16":1.0304526090621948,"17":1.0753910541534424,"18":-0.5851248502731323,"19":-0.6739963889122009,"20":1.2192375659942627,"21":0.47056543827056885,"22":0.824778139591217,"23":-0.48781830072402954,"24":1.3357608318328857,"25":-0.14460639655590057,"26":0.2883843183517456,"27":-0.8968484997749329,"28":1.6163514852523804,"29":-0.3851081430912018,"30":-0.6097142696380615,"31":-0.699039101600647,"32":0.7452909350395203,"33":-1.1987718343734741,"34":0.47420066595077515,"35":-0.6641861200332642,"36":0.48171916604042053,"37":-1.1200575828552246,"38":-0.38850677013397217,"39":0.5356473922729492,"40":0.48154014348983765,"41":0.769890546798706,"42":0.5447449684143066,"43":-0.4147452414035797,"44":0.4125632643699646,"45":-0.5112023949623108,"46":-0.7310678362846375,"47":-0.1374848484992981,"48":1.6091060638427734,"49":-0.7087336778640747,"50":0.0794873908162117,"51":-0.842030942440033,"52":1.0037281513214111,"53":-0.43569645285606384,"54":0.9125917553901672,"55":-0.4561542570590973,"56":1.2168065309524536,"57":0.3110778033733368,"58":0.9043651819229126}},"52":{"bias":-2.514336585998535,"weights":{"0":0.16778932511806488,"1":-0.9059410095214844,"2":1.5046911239624023,"3":1.2217648029327393,"4":1.2154690027236938,"5":-1.5315029621124268,"6":-4.765336513519287,"7":0.4530794024467468,"8":1.0654528141021729,"9":-0.8581079840660095,"10":-1.3905072212219238,"11":-0.28389689326286316,"12":-0.5089271068572998,"13":0.0011460351524874568,"14":0.17926621437072754,"15":-0.4619029760360718,"16":0.39698877930641174,"17":0.4253610670566559,"18":-0.05528108775615692,"19":-1.438363790512085,"20":0.42366084456443787,"21":-0.5161243081092834,"22":0.9583680033683777,"23":0.08146867901086807,"24":1.1179066896438599,"25":-1.1038596630096436,"26":0.9186180830001831,"27":-1.0799503326416016,"28":0.8163421154022217,"29":-0.6647130250930786,"30":-0.2501745820045471,"31":-0.28119656443595886,"32":0.5677124857902527,"33":-0.63222336769104,"34":1.233818769454956,"35":0.14842678606510162,"36":-0.5217176675796509,"37":-1.7628884315490723,"38":0.5064821839332581,"39":-0.28041526675224304,"40":1.4548035860061646,"41":0.8895406126976013,"42":0.8326924443244934,"43":-0.8923482894897461,"44":0.5215216279029846,"45":0.08773241937160492,"46":-0.03914780914783478,"47":-0.47113943099975586,"48":0.8877375721931458,"49":-0.09886560589075089,"50":0.9800615310668945,"51":-0.620413064956665,"52":0.16931119561195374,"53":-0.14697329699993134,"54":1.559889793395996,"55":0.5433163642883301,"56":1.0848252773284912,"57":1.3208205699920654,"58":1.1334363222122192}},"53":{"bias":0.04444579407572746,"weights":{"0":-0.19816769659519196,"1":0.6459175944328308,"2":0.5294979810714722,"3":0.5330787897109985,"4":0.5432140827178955,"5":-0.9077823162078857,"6":2.821901798248291,"7":0.2890484631061554,"8":-0.08932429552078247,"9":0.48782262206077576,"10":1.3980470895767212,"11":0.06449131667613983,"12":-0.07860109955072403,"13":0.18659797310829163,"14":-0.2472698986530304,"15":0.17648707330226898,"16":0.8813379406929016,"17":0.3156243860721588,"18":-0.3548593521118164,"19":0.2389788031578064,"20":-0.11141134798526764,"21":0.2696264386177063,"22":-0.2556540369987488,"23":-0.5084778666496277,"24":0.30138668417930603,"25":-0.02404080517590046,"26":0.21324868500232697,"27":-0.38914385437965393,"28":0.05994829535484314,"29":0.6732715368270874,"30":0.13307061791419983,"31":0.3104093372821808,"32":0.17184551060199738,"33":-0.006050893571227789,"34":-0.24812725186347961,"35":-0.15594276785850525,"36":0.7723029851913452,"37":0.9756380915641785,"38":-0.83598792552948,"39":0.060385942459106445,"40":-0.45680931210517883,"41":0.12070122361183167,"42":-0.5465874671936035,"43":-0.16816066205501556,"44":-0.1717703640460968,"45":-0.4322761297225952,"46":-0.17068730294704437,"47":-0.18660810589790344,"48":0.1320573389530182,"49":-0.16069646179676056,"50":-0.3358002305030823,"51":-0.5083168148994446,"52":0.32172322273254395,"53":0.3093416392803192,"54":-0.821856677532196,"55":-0.8022332787513733,"56":-0.24282754957675934,"57":-0.38005438446998596,"58":-0.1979924589395523}},"54":{"bias":0.4647250473499298,"weights":{"0":-0.4043254852294922,"1":0.09867438673973083,"2":0.376130610704422,"3":-0.6228147745132446,"4":-0.37292781472206116,"5":-0.07730244100093842,"6":0.5744844079017639,"7":0.14915983378887177,"8":-0.3225780725479126,"9":-0.25232604146003723,"10":-0.03371351584792137,"11":0.28154927492141724,"12":-0.24435605108737946,"13":0.2533598840236664,"14":-0.040368836373090744,"15":-0.16955198347568512,"16":-0.2842883765697479,"17":-0.1359250247478485,"18":-0.12376520037651062,"19":-0.049514468759298325,"20":-0.18648242950439453,"21":0.0043738605454564095,"22":-0.03267655521631241,"23":0.03996465355157852,"24":-0.3955690264701843,"25":0.030431626364588737,"26":-0.12153585255146027,"27":-0.2758662700653076,"28":-0.26254212856292725,"29":0.04066167771816254,"30":0.057919636368751526,"31":0.04059276729822159,"32":-0.3033057749271393,"33":0.35105279088020325,"34":-0.2777234613895416,"35":0.167944997549057,"36":-0.03559160605072975,"37":0.25913476943969727,"38":-0.1396275907754898,"39":0.08009786903858185,"40":-0.27631744742393494,"41":0.08555645495653152,"42":0.11028740555047989,"43":-0.16137202084064484,"44":-0.13950945436954498,"45":-0.1428450644016266,"46":0.11430709064006805,"47":-0.26082643866539,"48":-0.5376800894737244,"49":-0.06937435269355774,"50":-0.11691329628229141,"51":0.03882881626486778,"52":-0.004781730473041534,"53":-0.18702805042266846,"54":-0.23778077960014343,"55":-0.004761267453432083,"56":-0.46948185563087463,"57":-0.2793363928794861,"58":0.023430217057466507}},"55":{"bias":1.2891781330108643,"weights":{"0":0.7868793606758118,"1":-0.7733988165855408,"2":2.524564504623413,"3":-1.8141345977783203,"4":-1.1661728620529175,"5":-0.4315229654312134,"6":0.625808596611023,"7":0.1368546187877655,"8":-0.2407488375902176,"9":-0.6598512530326843,"10":-0.09620275348424911,"11":0.1981186717748642,"12":-0.8263885974884033,"13":0.3199414014816284,"14":-0.1839904934167862,"15":-0.5100439786911011,"16":-0.6820780038833618,"17":0.17809191346168518,"18":0.12411973625421524,"19":0.5043706893920898,"20":-1.1837480068206787,"21":-0.179659903049469,"22":0.37539634108543396,"23":-0.27883943915367126,"24":-0.9343440532684326,"25":-0.27280130982398987,"26":-0.16901946067810059,"27":-0.8980041146278381,"28":-1.4669405221939087,"29":0.31863462924957275,"30":0.21030937135219574,"31":0.1338309645652771,"32":-0.16951823234558105,"33":0.7985164523124695,"34":-0.05557841807603836,"35":-0.42238616943359375,"36":0.16930638253688812,"37":0.12147671729326248,"38":0.050650887191295624,"39":-0.162787526845932,"40":-0.126560777425766,"41":0.44501590728759766,"42":0.31386375427246094,"43":-0.9398239850997925,"44":0.12684521079063416,"45":0.3834839463233948,"46":0.41486164927482605,"47":-0.6841086745262146,"48":-0.7729606032371521,"49":0.08529378473758698,"50":0.6973024010658264,"51":0.6361138820648193,"52":-0.31480446457862854,"53":0.0657842606306076,"54":-0.22058120369911194,"55":-0.0037442047614604235,"56":-0.7304301857948303,"57":0.3746508061885834,"58":0.02757388725876808}},"56":{"bias":1.588523507118225,"weights":{"0":-0.19968034327030182,"1":-1.0723445415496826,"2":3.9706475734710693,"3":-2.845716714859009,"4":-2.3533775806427,"5":0.7677105665206909,"6":-1.8302005529403687,"7":1.5534061193466187,"8":0.262381374835968,"9":-0.24496003985404968,"10":-0.9703752994537354,"11":-0.29800841212272644,"12":-0.2325751632452011,"13":-0.020853441208600998,"14":0.40580055117607117,"15":-1.1670562028884888,"16":-0.6445425748825073,"17":-0.4438278079032898,"18":1.0491887331008911,"19":0.27768754959106445,"20":-1.2847952842712402,"21":-1.396514892578125,"22":1.5779987573623657,"23":0.3887782394886017,"24":-1.3468250036239624,"25":-0.2855067849159241,"26":0.4271192252635956,"27":-1.2355526685714722,"28":-0.9979847073554993,"29":-0.4880332350730896,"30":0.23684169352054596,"31":-0.4629315137863159,"32":-0.06917089968919754,"33":0.7410168647766113,"34":0.6068066954612732,"35":-0.4010739326477051,"36":0.2869632840156555,"37":-1.1419572830200195,"38":1.3149617910385132,"39":-0.8867753148078918,"40":0.01427377201616764,"41":-0.630686342716217,"42":0.17542415857315063,"43":-1.054659128189087,"44":0.5071163177490234,"45":0.4591907858848572,"46":1.4650527238845825,"47":-1.511986255645752,"48":-1.3102295398712158,"49":-0.23262205719947815,"50":1.8108222484588623,"51":0.8177473545074463,"52":-0.2999100387096405,"53":-0.9393102526664734,"54":0.5847427248954773,"55":0.7361864447593689,"56":-0.703316330909729,"57":1.1287320852279663,"58":0.32282161712646484}},"57":{"bias":0.30960729718208313,"weights":{"0":1.1790355443954468,"1":-0.4167187511920929,"2":1.3709161281585693,"3":-1.3464407920837402,"4":-1.2017793655395508,"5":0.4465061128139496,"6":-3.563838005065918,"7":0.7839980721473694,"8":0.5751450061798096,"9":-1.0425866842269897,"10":-1.9741228818893433,"11":-0.4904290735721588,"12":0.3205774128437042,"13":-0.41786497831344604,"14":0.6090363264083862,"15":-0.545608639717102,"16":-1.2701385021209717,"17":-0.6327065825462341,"18":0.7575474381446838,"19":-0.2404460608959198,"20":-0.8762239217758179,"21":-0.5000355243682861,"22":1.0471909046173096,"23":0.3612256646156311,"24":-0.8829282522201538,"25":0.008752638474106789,"26":-0.11779527366161346,"27":0.0738428384065628,"28":-0.6414074301719666,"29":-0.5767010450363159,"30":-0.9514390230178833,"31":-0.18709909915924072,"32":-0.26158609986305237,"33":0.19721710681915283,"34":-0.005236242897808552,"35":0.08605987578630447,"36":-0.9773465394973755,"37":-1.135934591293335,"38":0.8646475672721863,"39":-0.8086845874786377,"40":0.15989720821380615,"41":-0.41126778721809387,"42":0.6484840512275696,"43":-0.33576929569244385,"44":0.417467325925827,"45":0.4905316233634949,"46":0.5989882349967957,"47":0.1748451292514801,"48":-0.4083785116672516,"49":0.42295223474502563,"50":1.1356624364852905,"51":1.0660178661346436,"52":-1.4044831991195679,"53":-0.44461682438850403,"54":1.1968475580215454,"55":1.5126276016235352,"56":-0.05158546194434166,"57":1.2815738916397095,"58":0.17812007665634155}},"58":{"bias":0.3307885527610779,"weights":{"0":0.22341865301132202,"1":-0.5301880240440369,"2":-0.4250834286212921,"3":-0.2843834161758423,"4":-0.4408586025238037,"5":1.4446532726287842,"6":0.07083730399608612,"7":0.005577487871050835,"8":-0.1830938160419464,"9":0.48462700843811035,"10":-0.37497586011886597,"11":0.2893722653388977,"12":0.3333997130393982,"13":-0.3734317719936371,"14":-0.003309965832158923,"15":0.21167287230491638,"16":-0.2938340902328491,"17":-0.5512708425521851,"18":0.37146589159965515,"19":0.4927447438240051,"20":-0.15856170654296875,"21":-0.3508138060569763,"22":0.11798171699047089,"23":0.27645450830459595,"24":-0.6096502542495728,"25":-0.032948847860097885,"26":-0.32059094309806824,"27":-0.0024699813220649958,"28":0.36332014203071594,"29":-0.28872421383857727,"30":0.15428273379802704,"31":0.11416216939687729,"32":-0.16017167270183563,"33":-0.24539947509765625,"34":-0.07737413048744202,"35":0.29233497381210327,"36":-0.2714449465274811,"37":-0.08149837702512741,"38":0.4715719223022461,"39":-0.21501779556274414,"40":0.09282637387514114,"41":-0.6124861240386963,"42":-0.17733046412467957,"43":0.45111149549484253,"44":-0.4128331243991852,"45":-0.1714538335800171,"46":-0.22071869671344757,"47":0.025824520736932755,"48":-0.46533623337745667,"49":-0.17715159058570862,"50":-0.2040744423866272,"51":0.12828031182289124,"52":0.13344210386276245,"53":-0.27649134397506714,"54":0.12946438789367676,"55":0.1616966873407364,"56":-0.03397117182612419,"57":0.05975419282913208,"58":-0.21384698152542114}}},{"0":{"bias":-0.4098498225212097,"weights":{"0":-3.906481981277466,"1":-0.1219225600361824,"2":-3.075714349746704,"3":1.0213626623153687,"4":1.8714587688446045,"5":3.8498027324676514,"6":1.160979986190796,"7":-4.141591548919678,"8":0.8651055097579956,"9":-2.4670794010162354,"10":0.706038773059845,"11":-0.43941473960876465,"12":1.7860901355743408,"13":1.2899388074874878,"14":0.4270932376384735,"15":-0.03200078010559082,"16":0.7822116613388062,"17":-3.622859001159668,"18":0.550072431564331,"19":1.641044020652771,"20":0.7598024606704712,"21":0.49797332286834717,"22":-4.054141521453857,"23":-0.7158157229423523,"24":-5.3482666015625,"25":-2.3497891426086426,"26":3.6732680797576904,"27":0.16843269765377045,"28":1.2495555877685547,"29":0.031210841611027718,"30":2.3168275356292725,"31":-0.28252893686294556,"32":-4.210826396942139,"33":3.068779468536377,"34":0.2731226980686188,"35":0.039428260177373886,"36":1.8264061212539673,"37":0.9719510674476624,"38":2.2412593364715576,"39":0.6354087591171265,"40":-0.9609858989715576,"41":-1.0380219221115112,"42":-2.8904144763946533,"43":-6.21743106842041,"44":0.24864713847637177,"45":-1.8265116214752197,"46":-0.0184592604637146,"47":-1.8262842893600464,"48":3.09399676322937,"49":0.42139720916748047,"50":-3.0099568367004395,"51":1.5694924592971802,"52":1.7148951292037964,"53":0.3770926594734192,"54":0.15716257691383362,"55":1.5457005500793457,"56":2.809020519256592,"57":0.9340779185295105,"58":-0.5075622200965881}},"1":{"bias":-0.17294883728027344,"weights":{"0":-1.0574772357940674,"1":-1.636178731918335,"2":-4.257871150970459,"3":-3.021023750305176,"4":-3.3562779426574707,"5":2.352893829345703,"6":-1.617817997932434,"7":1.8636884689331055,"8":-4.242972373962402,"9":-0.46359357237815857,"10":-1.5496444702148438,"11":0.3895530104637146,"12":-3.8702757358551025,"13":-2.1810390949249268,"14":-1.6448290348052979,"15":-0.21147476136684418,"16":-2.923760414123535,"17":-1.1410969495773315,"18":-1.3398302793502808,"19":-1.842370629310608,"20":-2.136159896850586,"21":3.9540512561798096,"22":2.203244686126709,"23":2.8111748695373535,"24":1.0750696659088135,"25":-6.147487163543701,"26":-2.874685525894165,"27":-0.914749801158905,"28":-2.327070713043213,"29":0.2989221215248108,"30":-2.6080472469329834,"31":-1.8338059186935425,"32":-4.763883113861084,"33":-2.068294048309326,"34":-1.6916385889053345,"35":4.7419352531433105,"36":-1.6214035749435425,"37":-3.8917593955993652,"38":-2.5251858234405518,"39":-3.2801167964935303,"40":-3.259678602218628,"41":0.8884380459785461,"42":1.8660099506378174,"43":-0.10976748168468475,"44":0.38649117946624756,"45":-0.5998240113258362,"46":-2.1579654216766357,"47":2.2750637531280518,"48":-2.6141316890716553,"49":-1.9514493942260742,"50":-1.0592175722122192,"51":3.1974778175354004,"52":2.8206474781036377,"53":-0.13131870329380035,"54":-1.4423017501831055,"55":-2.615123987197876,"56":-3.2360565662384033,"57":-1.2585092782974243,"58":-0.8293657898902893}},"2":{"bias":-0.5920345783233643,"weights":{"0":1.6068620681762695,"1":0.7334845662117004,"2":-0.9904021620750427,"3":0.20797160267829895,"4":0.8472737669944763,"5":-2.7017266750335693,"6":2.820078134536743,"7":2.9616715908050537,"8":-0.27625930309295654,"9":-1.8108344078063965,"10":-1.8380084037780762,"11":-0.11476978659629822,"12":-1.5584543943405151,"13":0.8031394481658936,"14":0.34961721301078796,"15":-0.5477288961410522,"16":3.5954742431640625,"17":-1.408642292022705,"18":-0.07922651618719101,"19":0.22041957080364227,"20":-0.12506958842277527,"21":-4.370327949523926,"22":0.24473758041858673,"23":-2.220890998840332,"24":1.3953238725662231,"25":-0.06836330890655518,"26":1.364380955696106,"27":0.970892608165741,"28":0.03734749183058739,"29":1.607758641242981,"30":-0.05453076213598251,"31":0.7339727878570557,"32":-1.2861136198043823,"33":0.46480607986450195,"34":1.4981906414031982,"35":2.7028491497039795,"36":-0.026234842836856842,"37":-1.12879478931427,"38":1.5686315298080444,"39":-0.37795788049697876,"40":1.5817492008209229,"41":-0.7338850498199463,"42":-6.157533168792725,"43":-0.47070592641830444,"44":-1.9975464344024658,"45":3.5781736373901367,"46":0.4805147051811218,"47":-2.6427931785583496,"48":-1.795746922492981,"49":1.399631142616272,"50":-1.591126561164856,"51":-1.1925793886184692,"52":-2.3887619972229004,"53":-1.2251635789871216,"54":-0.09944053739309311,"55":-0.8370550870895386,"56":0.9134012460708618,"57":0.6926348805427551,"58":1.8097898960113525}},"3":{"bias":-0.4047354757785797,"weights":{"0":-1.7891464233398438,"1":0.08521226793527603,"2":2.3319945335388184,"3":-0.6880950927734375,"4":0.7195775508880615,"5":2.391296863555908,"6":0.5612659454345703,"7":-1.6409870386123657,"8":-1.9299147129058838,"9":3.3818137645721436,"10":-0.9827414155006409,"11":0.4925031363964081,"12":-0.1909228414297104,"13":0.9124745726585388,"14":1.4022680521011353,"15":-4.62423038482666,"16":1.0239441394805908,"17":3.3102197647094727,"18":1.1346572637557983,"19":0.49951618909835815,"20":0.558013379573822,"21":0.017469827085733414,"22":-0.00316203897818923,"23":-2.09255051612854,"24":-2.217890739440918,"25":-0.2231045812368393,"26":-3.0337326526641846,"27":1.1527339220046997,"28":-0.19768446683883667,"29":-0.8156124949455261,"30":1.3672420978546143,"31":-0.37328317761421204,"32":-0.18982811272144318,"33":-0.04206174239516258,"34":1.2073582410812378,"35":-2.0639169216156006,"36":0.23663581907749176,"37":3.3862268924713135,"38":-0.4881567358970642,"39":1.143547773361206,"40":2.1346871852874756,"41":-1.7200734615325928,"42":2.3401782512664795,"43":2.643857002258301,"44":-1.0209554433822632,"45":0.8186748027801514,"46":1.0230543613433838,"47":-2.3978829383850098,"48":-0.9059630036354065,"49":-0.10258094221353531,"50":-1.7337682247161865,"51":-1.1401602029800415,"52":-4.36393928527832,"53":2.921830177307129,"54":0.8118429780006409,"55":0.31651657819747925,"56":-3.091488838195801,"57":-4.547472953796387,"58":0.3255080580711365}}}],"outputLookup":false,"inputLookup":false,"activation":"sigmoid","trainOpts":{"iterations":20000,"errorThresh":0.005,"log":true,"logPeriod":1,"learningRate":0.3,"momentum":0.1,"callbackPeriod":10,"beta1":0.9,"beta2":0.999,"epsilon":1e-8}}